tree
version=v2
num_class=1
num_tree_per_iteration=1
label_index=0
max_feature_idx=19
objective=regression
feature_names=Store DayOfWeek Promo StateHoliday SchoolHoliday StoreType Assortment CompetitionDistance CompetitionOpenSinceMonth CompetitionOpenSinceYear Promo2 Promo2SinceWeek Promo2SinceYear Year Month Day WeekOfYear CompetitionOpen PromoOpen IsPromoMonth
feature_infos=[1:1115] [0:6] [0:1] [0:3] [0:1] [1:4] [1:3] [20:75860] [0:12] [0:2015] [0:1] [0:50] [0:2015] [2013:2015] [1:12] [1:31] [1:52] [0:24186] [0:24186.25] [0:1]
tree_sizes=2535 2648 2647 2650 2656 2644 2656 2657 2658 2659 2669 2664 2676 2664 2667 2651 2659 2657 2657 2659 2665 2656 2654 2655 2660 2680 2658 2668 2667 2669 2659 2652 2663 2648 2674 2677 2665 2669 2653 2670 2683 2663 2659 2672 2656 2666 2664 2659 2671 2665 2663 2659 2652 2663 2660 2655 2668 2678 2680 2673 2669 2673 2666 2665 2659 2651 2666 2671 2663 2672 2656 2666 2669 2664 2658 2668 2645 2674 2657 2667 2669 2657 2656 2677 2651 2664 2670 2666 2672 2687 2646 2664 2655 2678 2665 2667 2676 2665 2664 2670 2673 2670 2666 2665 2672 2678 2676 2679 2667 2689 2664 2676 2685 2680 2691 2662 2649 2692 2694 2688 2668 2686 2692 2661 2685 2651 2683 2686 2674 2657 2665 2668 2673 2658 2678 2679 2680 2687 2684 2671 2655 2658 2682 2684 2676 2683 2695 2658 2701 2694 2680 2671 2681 2657 2684 2693 2692 2682 2649 2679 2674 2650 2671 2664 2652 2656 2671 2656 2687 2699 2670 2687 2673 2674 2677 2675 2695 2675 2696 2668 2682 2662 2704 2656 2648 2662 2656 2653 2688 2645 2662 2685 2654 2679 2665 2688 2667 2668 2697 2677 2663 2678 2665 2654 2651 2645 2684 2672 2664 2663 2659 2672 2699 2666 2651 2666 2666 2674 2692 2655 2677 2671 2663 2658 2692 2677 2659 2668 2669 2647 2711 2672 2668 2674 2655 2695 2699 2669 2656 2676 2653 2659 2668 2656 2660 2698 2643 2699 2666 2698 2642 2667 2673 2700 2652 2661 2660 2671 2652 2658 2647 2653 2638 2651 2647 2645 2686 2682 2664 2698 2654 2706 2689 2678 2664 2650 2694 2662 2656 2695 2653 2646 2710 2647 2675 2658 2665 2638 2648 2641 2645 2636 2680 2678 2655 2664 2697 2690 2658 2687 2641 2645 2641 2687 2647 2701 2708 2696 2708 2661 2658 2632 2673 2653 2711 2677 2648 2678 2639 2650 2714 2641 2704 2647 2704 2648 2675 2639 2656 2629 2645 2650 2673 2649 2649 2677 2655 2660 2659 2697 2650 2638 2665 2680 2669 2708 2704 2649 2687 2701 2648 2676 2622 2667 2652 2659 2656 2653 2677 2661 2663 2666 2690 2653 2682 2689 2672 2639 2697 2672 2668 2661 2695 2615 2663 2703 2630 2636 2626 2668 2641 2667 2656 2653 2693 2629 2670 2631 2659 2693 2708 2709 2683 2695 2689 2632 2668 2625 2676 2637 2640 2661 2664 2630 2652 2652 2650 2655 2660 2651 2695 2644 2668 2658 2678 2670 2664 2667 2658 2671 2694 2702 2727 2643 2686 2653 2634 2676 2633 2635 2622 2653 2637 2671 2618 2634 2662 2669 2656 2613 2675 2675 2620 2660 2686 2655 2648 2659 2635 2629 2651 2647 2640 2640 2658 2657 2643 2655 2651 2649 2650 2643 2617 2686 2608 2679 2661 2707 2634 2646 2672 2674 2670 2695 2639 2632 2646 2636 2644 2641 2695 2681 2669 2614 2639 2691 2657 2627 2648 2664 2676 2697 2710 2611 2661 2642 2652 2646 2689 2656 2622 2626 2659 2621 2614 2650 2640 2666 2664 2623 2647 2646 2650 2679 2649 2664 2660 2639 2643 2667 2679 2697 2653 2697 2634 2626 2665 2664 2700 2642 2661 2680 2669 2650 2638 2639 2649 2658 2653 2652 2667 2668 2653 2628 2659 2682 2688 2652 2686 2672 2666 2645 2652 2667 2690 2648 2636 2638 2645 2640 2649 2685 2629 2690 2643 2646 2652 2641 2683 2613 2610 2630 2627 2649 2661 2646 2657 2643 2665 2648 2655 2658 2658 2637 2655 2650 2659 2678 2692 2652 2619 2640 2680 2619 2674 2633 2629 2694 2658 2665 2636 2655 2631 2668 2628 2641 2622 2654 2641 2626 2660 2658 2619 2637 2652 2638 2652 2660 2648 2644 2679 2672 2690 2621 2677 2633 2645 2650 2644 2650 2642 2653 2664 2668 2637 2648 2637 2641 2620 2654 2684 2681 2661 2677 2686 2672 2622 2651 2636 2634 2637 2675 2619 2619 2640 2652 2640 2698 2642 2664 2632 2662 2672 2660 2702 2662 2627 2629 2635 2661 2669 2659 2658 2690 2647 2660 2652 2639 2635 2646 2658 2642 2633 2650 2645 2640 2603 2659 2632 2636 2668 2665 2635 2643 2651 2615 2638 2642 2643 2653 2645 2632 2642 2658 2642 2672 2625 2670 2624 2666 2623 2666 2636 2664 2650 2640 2658 2640 2633 2672 2668 2633 2687 2665 2645 2653 2619 2652 2625 2652 2619 2622 2621 2635 2623 2664 2641 2683 2652 2625 2625 2652 2651 2674 2641 2690 2667 2625 2651 2637 2634 2657 2632 2667 2644 2645 2622 2628 2640 2692 2665 2698 2635 2663 2595 2698 2633 2699 2654 2656 2609 2635 2660 2624 2637 2631 2657 2638 2665 2640 2610 2609 2637 2607 2649 2618 2667 2690 2659 2667 2690 2642 2648 2665 2641 2622 2653 2647 2635 2639 2672 2706 2659 2669 2653 2636 2632 2605 2651 2678 2715 2634 2621 2664 2651 2667 2659 2642 2655 2643 2626 2665 2638 2625 2671 2651 2647 2638 2645 2647 2649 2668 2654 2644 2621 2629 2633 2633 2636 2637 2665 2666 2646 2661 2658 2627 2668 2644 2653 2650 2647 2667 2670 2662 2618 2641 2646 2683 2645 2648 2654 2652 2669 2637 2667 2652 2643 2634 2647 2664 2670 2645 2657 2679 2622 2631 2665 2634 2624 2634 2622 2623 2629 2685 2652 2675 2655 2658 2654 2621 2635 2637 2641 2665 2654 2654 2650 2645 2671 2643 2721 2642 2651 2647 2649 2632 2659 2655 2662 2626 2679 2611 2689 2673 2627 2601 2611 2648 2655 2646 2636 2627 2639 2645 2622 2631 2618 2645 2625 2604 2662 2673 2688 2648 2651 2617 2658 2626 2657 2642 2636 2666 2640 2639 2632 2669 2637 2701 2701 2644 2672 2608 2648 2636 2651 2620 2635 2620 2617 2626 2609 2652 2658 2612 2655 2659 2640 2680 2661 2647 2670 2650 2665 2661 2652 2613 2651 2641 2646 2643 2627 2625 2680 2624 2625 2648 2644 2639 2643 2647 2631 2626 2627 2627 2644 2645 2609 2633 2619 2637 2658 2648 2638 2654 2663 2667 2650 2656 2657 2676 2667 2626 2616 2614 2656 2669 2675 2641 2628 2639 2704 2629 2638 2629 2636 2655 2642 2665 2657 2724 2636 2675 2673 2659 2639 2682 2675 2659 2659 2693 2647 2646 2658 2631 2631 2685 2707 2651 2711 2628 2671 2633 2636 2628 2635 2644 2640 2630 2628 2635 2633 2651 2640 2638 2657 2676 2676 2690 2680 2600 2656 2652 2652 2653 2660 2660 2635 2656 2662 2647 2637 2638 2650 2677 2685 2629 2638 2659 2625 2631 2604 2660 2631 2647 2658 2663 2638 2651 2639 2657 2689 2648 2642 2632 2641 2638 2652 2612 2629 2636 2681 2624 2643 2630 2659 2673 2652 2649 2633 2667 2651 2657 2644 2675 2650 2690 2618 2607 2681 2660 2624 2661 2632 2634 2617 2633 2688 2659 2638 2654 2637 2633 2602 2682 2636 2640 2653 2643 2651 2672 2655 2646 2693 2694 2640

Tree=0
num_leaves=31
num_cat=0
split_feature=2 1 18 16 7 7 12 12 5 1 1 0 7 11 7 7 7 9 7 0 0 9 18 12 15 7 8 8 7 0
split_gain=18918.6 2313.48 1164.24 850.67 586.468 576.724 550.111 527.525 511.451 967.085 441.099 440.665 417.588 522.425 444.929 365.008 344.65 306.616 301.512 342.615 296.369 271.724 263.262 251.137 224.681 223.154 314.215 273.587 268.943 216.84
threshold=1.0000000180025095e-35 1.0000000180025095e-35 62.875000000000007 48.500000000000007 285.00000000000006 1550.0000000000002 2013.5000000000002 2011.5000000000002 1.5000000000000002 4.5000000000000009 5.5000000000000009 1113.5000000000002 2425.0000000000005 38.000000000000007 295.00000000000006 355.00000000000006 12820.000000000002 2012.5000000000002 885.00000000000011 559.50000000000011 567.50000000000011 2011.5000000000002 16.125000000000004 2013.5000000000002 29.500000000000004 1515.0000000000002 4.5000000000000009 8.5000000000000018 305.00000000000006 1113.5000000000002
decision_type=2 2 2 2 2 2 2 2 2 2 2 2 2 2 2 2 2 2 2 2 2 2 2 2 2 2 2 2 2 2
left_child=2 -2 4 7 -1 10 12 15 9 -7 11 17 13 14 -6 -3 -11 18 -4 21 -21 -20 -14 -9 29 26 -19 -28 -29 -17
right_child=1 3 5 -5 6 8 -8 23 -10 16 -12 -13 22 -15 -16 24 -18 25 19 20 -22 -23 -24 -25 -26 -27 27 28 -30 -31
leaf_value=8.7565786486807742 8.7608883878877339 8.7600064381265739 8.7569663371385928 8.761138918095325 8.7452843504542201 8.7560442346750147 8.7561267387236228 8.7572389038405234 8.7565101883076064 8.7542608442747074 8.7632153719881583 8.7682861459649644 8.7539464758661882 8.7558745228529631 8.7535630268503013 8.7585128562543595 8.7514211153128851 8.7546884337295516 8.754506170693185 8.7663415104678943 8.7565735520667687 8.7478840083249452 8.7554419158654344 8.7586508285189506 8.7603975610994738 8.7663923323443669 8.7603469086568531 8.7648997132247555 8.756175213682992 8.7690930742449513
leaf_count=22792 58965 22116 36151 13127 659 42522 27784 38862 55878 13660 1119 337 15262 11004 43593 129387 6220 2288 7950 329 5559 672 51480 18640 6769 327 5256 388 3954 194
internal_value=0 0.190054 -0.154823 0.144589 -0.213716 -0.0991658 -0.236457 0.129566 -0.140611 -0.202836 -0.0229631 -0.0339805 -0.265378 -0.329677 -0.378165 0.159337 -0.384903 -0.0400933 -0.0743808 -0.196151 -0.0102042 -0.323135 -0.212144 0.0475205 0.140008 0.102135 0.0797149 0.159099 -0.0266559 0.13073
internal_count=643244 288060 355184 229095 172574 182610 149782 215968 118280 62402 64330 63211 121998 55256 44252 158466 19880 62874 50661 14510 5888 8622 66742 57502 136350 12213 11886 9598 4342 129581
shrinkage=1


Tree=1
num_leaves=31
num_cat=0
split_feature=2 1 18 14 11 7 18 1 1 0 5 16 16 7 7 7 7 7 5 1 5 7 7 7 7 7 9 7 14 0
split_gain=18542.1 2267.44 1141.07 833.742 576.523 566.08 518.891 489.991 471.457 466.164 463.29 426.486 408.849 394.383 355.09 515.484 388.633 322.19 380.581 470.927 468.973 359.997 280.22 263.724 265.152 264.369 258.352 244.27 211.207 210.977
threshold=1.0000000180025095e-35 1.0000000180025095e-35 62.875000000000007 11.500000000000002 36.500000000000007 14230.000000000002 35.625000000000007 5.5000000000000009 4.5000000000000009 1113.5000000000002 2.5000000000000004 47.500000000000007 47.500000000000007 175.00000000000003 285.00000000000006 295.00000000000006 2425.0000000000005 425.00000000000006 1.5000000000000002 4.5000000000000009 2.5000000000000004 1255.0000000000002 285.00000000000006 335.00000000000006 395.00000000000006 285.00000000000006 2012.5000000000002 425.00000000000006 11.500000000000002 1113.5000000000002
decision_type=2 2 2 2 2 2 2 2 2 2 2 2 2 2 2 2 2 2 2 2 2 2 2 2 2 2 2 2 2 2
left_child=2 28 4 6 12 7 22 9 -7 11 -10 17 14 -6 -1 -16 -17 23 19 -19 21 -20 -3 25 -25 -4 -26 -8 -2 -29
right_child=1 3 5 -5 13 8 27 -9 10 -11 -12 -13 -14 -15 15 16 -18 18 20 -21 -22 -23 -24 24 26 -27 -28 29 -30 -31
leaf_value=-0.0012840825527772849 0.0034848388040555388 0.0021543367852371589 -5.7140230615948089e-05 0.0038783509960730613 0.0032661484742311587 -0.001376027698518779 0.0025809266913110048 0.0053571665840525433 -0.005812371995461931 0.010954106390829964 -0.0012084049192087171 0.0010336128137451246 -0.00042081189237705332 -0.0013464124744155771 -0.012032557618382343 -0.0034859270558278495 -0.0022330533047393315 -0.0011444603345907708 0.0074771956846928023 -0.0030375813823904814 -0.00080163092471366231 0.00024750932487360749 0.0003371241826058855 0.0052026480521277689 -0.0014409993175975911 -0.0039822564578822538 0.0060180019133821289 0.0014330619717968251 0.0060923326401632477 0.011464951120228285
leaf_count=17036 55675 9837 18537 13127 1936 19170 22672 1306 5917 337 3466 11476 9111 43592 607 44530 55762 42198 1221 19082 51957 1580 61773 1818 2054 1891 600 121476 3290 210
internal_value=0 0.188154 -0.153275 0.143143 -0.211579 -0.0981741 0.12827 -0.0742045 -0.227502 -0.0794192 -0.411171 -0.0820169 -0.24618 -0.115027 -0.261947 -0.284494 -0.278933 -0.0971114 -0.11926 -0.173396 -0.0586757 0.339904 0.0586753 0.0061034 0.22606 -0.0420484 0.0245286 0.162793 0.363033 0.145037
internal_count=643244 288060 355184 229095 172574 182610 215968 154057 28553 152751 9383 152414 127046 45528 117935 100899 100292 140938 116038 61280 54758 2801 71610 24900 4472 20428 2654 144358 58965 121686
shrinkage=0.01


Tree=2
num_leaves=31
num_cat=0
split_feature=2 1 6 12 14 12 6 16 16 0 1 5 12 18 6 12 1 9 12 12 12 14 11 5 9 0 11 8 5 11
split_gain=18173.1 2222.32 1627.85 996.94 817.15 508.76 503.522 461.4 421.422 393.875 372.484 1195.12 346.958 335.608 329.029 294.475 254.498 249.843 280.861 246.724 211.084 207.004 199.708 195.179 187.77 183.072 176.874 166.72 196.758 158.972
threshold=1.0000000180025095e-35 1.0000000180025095e-35 1.5000000000000002 2011.5000000000002 11.500000000000002 2011.5000000000002 1.5000000000000002 47.500000000000007 47.500000000000007 1113.5000000000002 4.5000000000000009 1.5000000000000002 2013.5000000000002 65.875000000000014 2.5000000000000004 2014.5000000000002 5.5000000000000009 2011.5000000000002 2013.5000000000002 2013.5000000000002 2013.5000000000002 11.500000000000002 13.500000000000002 2.5000000000000004 2012.5000000000002 1113.5000000000002 9.5000000000000018 3.5000000000000004 1.5000000000000002 46.500000000000007
decision_type=2 2 2 2 2 2 2 2 2 2 2 2 2 2 2 2 2 2 2 2 2 2 2 2 2 2 2 2 2 2
left_child=2 21 7 8 5 6 -3 10 9 14 13 12 22 20 -4 -14 -16 18 29 -7 -1 -2 -12 24 -13 -8 -20 28 -18 -5
right_child=1 4 3 17 -6 19 25 -9 -10 -11 11 23 15 -15 16 -17 27 -19 26 -21 -22 -23 -24 -25 -26 -27 -28 -29 -30 -31
leaf_value=-0.0028461972299588527 0.0034499904616417331 0.001053671593108451 0.0035012011764710923 -0.0028097627259615404 0.0038395674500431034 1.0492429815349469e-05 0.0021599446613969541 -0.00038047475869704562 0.0018308741075611056 0.010736030736289466 -0.0039410597385236721 0.0002914671374330671 -0.00041651331594374667 -0.0014629181420531454 -0.00053256665068456086 -0.008826938279052364 -0.0063069644162510805 -0.00045008298313876173 -0.0078531987272938836 0.0014099557537712217 -0.0013965906750846135 0.0060314093542334444 -0.0057050347794256571 -0.0012880394980340334 0.0086670088556172718 0.011693461705552471 -0.00031150466161287841 -0.010346499943049255 0.010609020532346239 0.0012294238673870228
leaf_count=45464 55675 87357 2019 33039 13127 38862 70907 13516 8625 313 21371 923 3644 60484 105620 470 211 8911 324 18640 12894 3290 9173 18525 377 202 7736 439 102 1004
internal_value=0 0.186272 -0.151742 -0.0804204 0.141712 0.126987 0.156225 -0.216002 -0.0296771 -0.0465587 -0.229879 -0.298345 -0.410362 -0.198491 -0.0497934 -0.137735 -0.0573839 -0.197127 -0.229322 0.0464146 -0.252591 0.359402 -0.447082 -0.102519 0.272037 0.218703 -0.061467 -0.63707 -0.0794407 -0.269064
internal_count=643244 288060 355184 168343 229095 215968 158466 186841 117329 108704 173325 54483 34658 118842 108391 4114 106372 51014 42103 57502 58358 58965 30544 19825 1300 71109 8060 752 313 34043
shrinkage=0.01


Tree=3
num_leaves=31
num_cat=0
split_feature=2 1 6 12 7 16 7 18 12 7 18 7 0 6 16 7 5 1 5 9 7 7 7 1 7 18 9 12 6 7
split_gain=17811.5 2178.1 1595.46 977.101 816.207 800.889 630.733 523.282 559.135 633.525 500.247 450.741 433.148 426.172 374.198 365.227 292.424 527.807 390.637 336.45 318.367 275.4 255.167 250.367 246.423 277.045 244.871 275.272 238.759 235.082
threshold=1.0000000180025095e-35 1.0000000180025095e-35 1.5000000000000002 2011.5000000000002 355.00000000000006 48.500000000000007 25780.000000000004 67.125000000000014 2013.5000000000002 285.00000000000006 35.625000000000007 305.00000000000006 1113.5000000000002 1.5000000000000002 47.500000000000007 355.00000000000006 1.5000000000000002 4.5000000000000009 2.5000000000000004 2012.5000000000002 14230.000000000002 285.00000000000006 3775.0000000000005 4.5000000000000009 185.00000000000003 48.625000000000007 2011.5000000000002 2013.5000000000002 2.5000000000000004 415.00000000000006
decision_type=2 2 2 2 2 2 2 2 2 2 2 2 2 2 2 2 2 2 2 2 2 2 2 2 2 2 2 2 2 2
left_child=2 -2 6 4 24 10 7 8 9 -1 21 -11 14 -12 28 -15 17 -9 19 -18 29 -3 -13 -8 -4 -26 27 -5 -6 -19
right_child=1 5 3 26 12 -7 23 16 -10 11 13 22 -14 15 -16 -17 18 20 -20 -21 -22 -23 -24 -25 25 -27 -28 -29 -30 -31
leaf_value=-0.0010187238106406367 0.0035580825724353198 0.002127887847790074 0.00092752775604607485 -0.0026637321911549554 0.0030339185718460029 0.0038011718519644221 -0.004639324319980897 -0.0013058070063003205 -0.0011208411588410265 -0.011676718741033525 0.0011048983079255054 -0.0038615426182712492 0.010743546930724861 0.0044836553837192409 0.001504403985659584 0.0019510983348996931 0.00037437217400115234 -0.00084195793590463217 -0.0010779200468650225 0.0079632169322379938 -0.0080567958659446184 0.00032637203917012831 -0.0024827019572099584 -0.010670453464852112 0.00060057770778923828 0.0054795012470385453 -0.00044558215994253115 -0.00060852286570826117 -0.00084457160686436346 -0.0035927062415231754
leaf_count=13075 58965 9837 6823 34043 1614 13127 2161 41881 20070 659 79429 36865 337 6307 7740 58622 1704 4029 28500 889 1319 61773 21105 1010 1764 3421 8911 8060 95630 13574
internal_value=0 0.184409 -0.150224 -0.0796162 -0.0293803 0.140294 -0.213842 -0.206208 -0.25962 -0.300915 0.125718 -0.345304 -0.0575431 0.159615 -0.0611765 0.21971 -0.152867 -0.193206 -0.0739829 0.297618 -0.331818 0.0573845 -0.335955 -0.656031 0.217633 0.381963 -0.195156 -0.227029 -0.0780199 -0.296311
internal_count=643244 288060 355184 168343 117329 229095 186841 183670 91774 71704 215968 58629 105321 144358 104984 64929 91896 60803 31093 2593 18922 71610 57970 3171 12008 5185 51014 42103 97244 17603
shrinkage=0.01


Tree=4
num_leaves=31
num_cat=0
split_feature=2 1 6 12 7 14 7 18 12 7 18 7 0 6 16 7 7 9 8 8 7 7 1 7 18 9 12 6 7 1
split_gain=17457 2134.75 1563.71 957.657 799.964 784.951 618.182 512.868 548.008 620.918 490.692 441.771 424.528 402.867 366.752 353.66 295.952 278.177 267.077 434.065 261.487 250.089 245.385 241.519 271.532 239.998 269.794 234.008 232.106 226.16
threshold=1.0000000180025095e-35 1.0000000180025095e-35 1.5000000000000002 2011.5000000000002 355.00000000000006 11.500000000000002 25780.000000000004 67.125000000000014 2013.5000000000002 285.00000000000006 39.125000000000007 305.00000000000006 1113.5000000000002 1.5000000000000002 47.500000000000007 355.00000000000006 285.00000000000006 2008.5000000000002 2.5000000000000004 8.5000000000000018 525.00000000000011 3775.0000000000005 4.5000000000000009 185.00000000000003 48.625000000000007 2011.5000000000002 2013.5000000000002 2.5000000000000004 25780.000000000004 5.5000000000000009
decision_type=2 2 2 2 2 2 2 2 2 2 2 2 2 2 2 2 2 2 2 2 2 2 2 2 2 2 2 2 2 2
left_child=2 -2 6 4 23 10 7 8 9 -1 16 -11 14 -12 27 -15 -3 -9 -19 20 -20 -13 -8 -4 -25 26 -5 -6 -28 -29
right_child=1 5 3 25 12 -7 22 17 -10 11 13 21 -14 15 -16 -17 -18 18 19 -21 -22 -23 -24 24 -26 -27 28 29 -30 -31
leaf_value=-0.0010085365357015788 0.0035225017556286802 0.0021666560719975155 0.00091825245786505874 -0.0026370948741218621 0.0030035794386266252 0.003763160110482481 -0.0045929310599695169 -0.0019785853392784432 -0.0011096327327453236 -0.011559951603836598 0.0011124428468848046 -0.0038229271734275382 0.010636111024756105 0.0045053322771223458 0.0014893599240679012 0.0019501597052977977 0.00035904093299515545 -0.0032111689532247963 0.0030780646266575762 -0.0017316953372326794 -5.5926453061930725e-05 -0.0024578749044468409 -0.010563749103959059 0.00059457194204562815 0.0054247062359163893 -0.0004411263488184481 -0.00024850185693537079 -0.00079283092268546201 -0.0087387465304207233 -0.0062985427341791756
leaf_count=13075 58965 10483 6823 34043 1614 13127 2161 53586 20070 659 76365 36865 337 5991 7740 56520 66609 4299 3273 16470 14268 21105 1010 1764 3421 8911 7724 94878 336 752
internal_value=0 0.182565 -0.148722 -0.0788201 -0.0290865 0.138892 -0.211704 -0.204146 -0.257023 -0.297906 0.12446 -0.341851 -0.0569677 0.159974 -0.0605647 0.219505 0.0604841 -0.151338 -0.0862681 -0.0565831 0.0528849 -0.332596 -0.649471 0.215456 0.378144 -0.193204 -0.224759 -0.0772397 -0.0602438 -0.0836126
internal_count=643244 288060 355184 168343 117329 229095 186841 183670 91774 71704 215968 58629 105321 138876 104984 62511 77092 91896 38310 34011 17541 57970 3171 12008 5185 51014 42103 97244 8060 95630
shrinkage=0.01


Tree=5
num_leaves=31
num_cat=0
split_feature=2 1 6 18 7 16 7 18 18 7 7 1 6 7 5 17 7 11 5 1 5 7 9 9 16 1 11 7 7 0
split_gain=17086.1 2108.84 1547.33 929.032 819.465 765.99 620.153 497.566 472.936 468.5 498.578 435.371 387.646 341.02 320.76 371.741 290.208 287.775 278.445 536.613 380.945 324.038 322.453 272.621 262.023 253.94 253.88 292.519 251.142 240.671
threshold=1.0000000180025095e-35 1.0000000180025095e-35 1.5000000000000002 38.125000000000007 1615.0000000000002 47.500000000000007 25780.000000000004 67.125000000000014 39.125000000000007 285.00000000000006 295.00000000000006 5.5000000000000009 1.5000000000000002 355.00000000000006 2.5000000000000004 116.50000000000001 285.00000000000006 39.500000000000007 1.5000000000000002 4.5000000000000009 2.5000000000000004 14230.000000000002 2012.5000000000002 2011.5000000000002 47.500000000000007 4.5000000000000009 39.500000000000007 4000.0000000000005 255.00000000000003 1113.5000000000002
decision_type=2 2 2 2 2 2 2 2 2 2 2 2 2 2 2 2 2 2 2 2 2 2 2 2 2 2 2 2 2 2
left_child=2 -2 6 17 14 8 7 9 16 -1 -11 24 -10 -14 29 -16 -3 23 19 -9 22 -21 -20 -4 -6 -8 27 -12 -19 -5
right_child=1 5 3 4 11 -7 25 18 12 10 26 -13 13 -15 15 -17 -18 28 20 21 -22 -23 -24 -25 -26 -27 -28 -29 -30 -31
leaf_value=-0.00093036411910963907 0.0034916554478250095 0.0021366269501975912 -0.002346434008235059 0.001871254075623526 -0.0008570119261264574 0.003479004479063508 -0.0045183394521796615 -0.001258046410130727 0.0010850096629469131 -0.010165086772531237 -0.0036465084985862818 -0.0087182005809308214 0.004447080535051608 0.0019144153574443086 0.001305605027248874 -0.0023055593001304448 0.00034167921473654398 0.0068919383561418905 0.00040665933081209091 -0.0029244026145261747 -0.0010572329973567709 -0.0080163095208909702 0.0079233234404190184 -0.00038461533894041321 0.0014177303439410205 -0.010536692716869156 -0.0017460064213438487 -0.0021713873337826711 -0.00060454636596401264 0.010540712223462532
leaf_count=15128 59157 10427 44206 18039 66969 16069 2191 41805 74876 922 35940 681 5879 55564 7467 4611 66166 465 1659 17654 28493 1345 870 8435 5478 1031 18438 21476 11477 326
internal_value=0 0.180852 -0.146888 -0.0772854 -0.0185903 0.137369 -0.209492 -0.201864 0.121479 -0.253882 -0.285575 -0.0759818 0.156807 0.215675 0.119272 -0.00730238 0.0586035 -0.171414 -0.149803 -0.189136 -0.072709 -0.328487 0.299246 -0.203208 -0.068501 -0.644414 -0.276691 -0.309475 -0.0312647 0.202515
internal_count=643244 288138 355106 168154 103571 228981 186952 183730 212912 91904 76776 73128 136319 61443 30443 12078 76593 64583 91826 60804 31022 18999 2529 52641 72447 3222 75854 57416 11942 18365
shrinkage=0.01


Tree=6
num_leaves=31
num_cat=0
split_feature=2 1 6 12 7 16 7 18 12 7 12 6 7 7 16 5 1 5 7 9 1 7 18 12 7 7 9 12 6 1
split_gain=16746 2066.87 1516.54 912.878 779.514 750.747 607.812 487.664 533.43 605.855 470.082 461.547 425.054 409.016 362.476 272.904 525.934 373.364 317.589 316.037 248.886 244.532 266.898 242.148 235.219 234.505 229.266 258.448 226.521 243.723
threshold=1.0000000180025095e-35 1.0000000180025095e-35 1.5000000000000002 2011.5000000000002 355.00000000000006 47.500000000000007 25780.000000000004 67.125000000000014 2013.5000000000002 285.00000000000006 2011.5000000000002 1.5000000000000002 305.00000000000006 355.00000000000006 47.500000000000007 1.5000000000000002 4.5000000000000009 2.5000000000000004 14230.000000000002 2012.5000000000002 4.5000000000000009 185.00000000000003 48.625000000000007 2013.5000000000002 415.00000000000006 3775.0000000000005 2011.5000000000002 2013.5000000000002 2.5000000000000004 5.5000000000000009
decision_type=2 2 2 2 2 2 2 2 2 2 2 2 2 2 2 2 2 2 2 2 2 2 2 2 2 2 2 2 2 2
left_child=2 -2 6 4 21 10 7 8 9 -1 11 -3 -11 -13 28 16 -9 19 24 -17 -8 -4 -23 -12 -18 -14 27 -5 -6 -30
right_child=1 5 3 26 14 -7 20 15 -10 12 23 13 25 -15 -16 17 18 -19 -20 -21 -22 22 -24 -25 -26 -27 -28 -29 29 -31
leaf_value=-0.00096577843586164521 0.0034567388350359961 0.00099521426012423781 0.00088612472915594836 -0.0025747473552951783 0.0029939022029169689 0.0034442144386596513 -0.004473156049273337 -0.0012454659520671392 -0.0010715072172553721 -0.011322188286403823 -2.6266450910835131e-05 0.0043538656694333371 -0.0037362549378769862 0.0018312665110175913 0.0015128246359011994 0.0004025927114885945 -0.00078772572068460018 -0.0010466606918887779 -0.0079361463890597703 0.0078440901613111829 -0.010431325939715642 0.00061467730933334875 0.0053887520678393332 0.0013657240926313896 -0.0035273885120307531 -0.0024149476473737299 -0.0004324418265663401 -0.00057248776140268905 -0.00074031579574647313 -0.0064823447857520877
leaf_count=13039 59157 85843 6848 33944 1613 16069 2191 41805 20057 661 38501 7159 37088 62906 7839 1659 4074 28493 1345 870 1031 1777 3434 18503 13580 21059 8964 7958 95032 745
internal_value=0 0.179044 -0.145419 -0.0765125 -0.0279904 0.135995 -0.207397 -0.199846 -0.251343 -0.291597 0.120265 0.148677 -0.334836 0.208902 -0.0555881 -0.148305 -0.187244 -0.071982 -0.325203 0.296254 -0.63797 0.212832 0.376075 0.0425562 -0.289516 -0.325772 -0.188396 -0.219448 -0.0722393 -0.078498
internal_count=643244 288138 355106 168154 117288 228981 186952 183730 91904 71847 212912 155908 58808 70065 105229 91826 60804 31022 18999 2529 3222 12059 5211 57004 17654 58147 50866 41902 97390 95777
shrinkage=0.01


Tree=7
num_leaves=31
num_cat=0
split_feature=2 1 6 18 7 16 7 18 12 7 12 1 7 7 6 7 0 11 9 9 8 8 7 16 7 1 7 11 1 7
split_gain=16412.8 2025.74 1486.36 895.148 793.136 735.807 595.716 477.96 522.815 593.799 463.86 420.68 416.595 368.778 294.303 360.758 282.926 279.917 269.064 263.264 255.848 418.384 267.505 251.684 244.902 243.934 229.838 228.489 203.381 210.129
threshold=1.0000000180025095e-35 1.0000000180025095e-35 1.5000000000000002 38.125000000000007 1615.0000000000002 47.500000000000007 25780.000000000004 67.125000000000014 2013.5000000000002 285.00000000000006 2009.5000000000002 5.5000000000000009 305.00000000000006 285.00000000000006 1.5000000000000002 1615.0000000000002 1113.5000000000002 39.500000000000007 2008.5000000000002 2011.5000000000002 2.5000000000000004 8.5000000000000018 525.00000000000011 47.500000000000007 255.00000000000003 4.5000000000000009 3775.0000000000005 1.0000000180025095e-35 4.5000000000000009 14230.000000000002
decision_type=2 2 2 2 2 2 2 2 2 2 2 2 2 2 2 2 2 2 2 2 2 2 2 2 2 2 2 2 2 2
left_child=2 -2 6 17 16 10 7 8 9 -1 14 23 -11 -12 -3 -16 27 19 28 -4 -20 22 -22 -6 -19 -8 -14 -5 -9 -30
right_child=1 5 3 4 11 -7 25 18 -10 12 13 -13 26 -15 15 -17 -18 24 20 -21 21 -23 -24 -25 -26 -27 -28 -29 29 -31
leaf_value=-0.00095612066326506622 0.0034221714738760308 0.0011515760499372389 -0.0023039160856933708 0.0015246624628971225 -0.00084098579326989567 0.0034097723266462926 -0.0044284244887156741 -0.0015070553172552886 -0.0010607921350083082 -0.011208966277915218 0.0022621225130104133 -0.0085688955364489582 -0.0036988923893034836 0.00041212812440048714 0.0034597136825269006 0.001640070783926664 0.010440911200880275 0.0068153075226131945 -0.0031412913189833003 -0.00037606038377023472 0.0031287493298500784 -0.001683826094561215 -5.1444376912628831e-05 0.0013884247983838882 -0.00058746021105749444 -0.010327012905269269 -0.00239079815892835 -0.00061127916299568623 -0.0024444648744966304 -0.0060361677187583942
leaf_count=13039 59157 65793 44206 23772 66969 16069 2191 36737 20057 661 12442 681 37088 80431 15097 39149 326 465 4244 8435 3247 16418 14266 5478 11477 1031 21059 6345 15088 1826
internal_value=0 0.177253 -0.143965 -0.0757474 -0.0181326 0.134635 -0.205323 -0.197847 -0.24883 -0.288681 0.119062 -0.0745947 -0.331488 0.0659968 0.160118 0.214649 0.117496 -0.168144 -0.146822 -0.1995 -0.0826498 -0.053697 0.053818 -0.0672411 -0.029921 -0.63159 -0.322514 0.107467 -0.192483 -0.283222
internal_count=643244 288138 355106 168154 103571 228981 186952 183730 91904 71847 212912 73128 58808 92873 120039 54246 30443 64583 91826 52641 38175 33931 17513 72447 11942 3222 58147 30117 53651 16914
shrinkage=0.01


Tree=8
num_leaves=31
num_cat=0
split_feature=2 1 16 18 16 7 11 12 1 1 5 7 7 7 7 7 7 7 12 12 15 5 1 5 7 15 4 14 7 7
split_gain=16086.2 1985.43 1062.32 907.596 721.164 533.011 526.24 454.704 430.615 414.583 410.83 344.516 329.731 321.256 408.222 285.904 346.415 241.242 237.778 223.779 212.514 211.112 349.196 268.586 383.856 204.323 636.711 196.006 179.644 236.405
threshold=1.0000000180025095e-35 1.0000000180025095e-35 47.500000000000007 64.875000000000014 47.500000000000007 14230.000000000002 36.500000000000007 2011.5000000000002 4.5000000000000009 5.5000000000000009 2.5000000000000004 175.00000000000003 355.00000000000006 255.00000000000003 2425.0000000000005 885.00000000000011 1065.0000000000002 790.00000000000011 2013.5000000000002 2013.5000000000002 29.500000000000004 1.5000000000000002 4.5000000000000009 2.5000000000000004 1255.0000000000002 23.500000000000004 1.0000000180025095e-35 11.500000000000002 1085.0000000000002 1075.0000000000002
decision_type=2 2 2 2 2 2 2 2 2 2 2 2 2 2 2 2 2 2 2 2 2 2 2 2 2 2 2 2 2 2
left_child=2 27 3 6 7 9 13 12 -7 15 -10 -8 -3 -1 19 17 -17 -5 -9 -15 -14 22 -18 24 -23 26 -4 -2 29 -25
right_child=1 4 25 5 -6 8 11 18 10 -11 -12 -13 20 14 -16 16 21 -19 -20 -21 -22 23 -24 28 -26 -27 -28 -29 -30 -31
leaf_value=-0.0011207947953796773 0.003247814986573146 0.0026003029168976156 0.00037758676420438289 -0.0003390868106569405 0.0033756746796665244 -0.001471205805084301 0.0030088432722097875 -3.3286750048172733e-05 -0.0058270673804926608 0.0051577556755227462 -0.001305808692289838 -0.0013657799281353101 0.0011812439547041398 -0.0036176069239624358 -0.0020886636995760795 -0.0046233153896098594 -0.00095046353341339692 0.0031178846894050283 0.0013460859171109776 -0.0015068456185221098 0.0029997040035920561 0.009396453106817004 -0.0027825860336723163 0.00012324998640041176 0.00014701747776847939 -0.00057347310300820788 0.0059522951991846885 0.0057523313355474738 -0.00067846064624769 -0.012441404380671607
leaf_count=15515 55847 21750 13296 37968 16069 17650 1881 38501 5549 1151 3151 41926 127390 40743 55825 2799 33366 2132 18503 5729 6768 634 15116 298 1535 10338 2422 3310 45781 301
internal_value=0 0.175481 -0.142525 -0.157916 0.133289 -0.106317 -0.211371 0.117871 -0.236872 -0.0819328 -0.418954 -0.117794 0.145815 -0.246166 -0.266503 -0.0868493 -0.115497 -0.015529 0.0414446 -0.33574 0.127298 -0.105493 -0.152169 -0.0588801 0.285063 0.0518433 0.12366 0.338795 -0.0749649 -0.619054
internal_count=643244 288138 355106 329050 228981 167431 161619 212912 26350 141081 8700 43807 155908 117812 102297 139930 99830 40100 57004 46472 134158 97031 48482 48549 2169 26056 15718 59157 46380 599
shrinkage=0.01


Tree=9
num_leaves=31
num_cat=0
split_feature=2 1 6 12 16 16 12 16 1 5 0 12 6 6 12 18 1 9 12 11 14 15 12 11 5 9 12 0 11 11
split_gain=15766.1 1945.92 1457.66 869.526 706.813 470.44 448.616 387.662 368.447 1138.39 337.204 306.389 298.834 289.031 287.628 287.459 250.561 220.169 250.222 197.691 192.106 190.908 184.93 176.42 170.18 173.444 166.698 164.886 160.705 142.956
threshold=1.0000000180025095e-35 1.0000000180025095e-35 1.5000000000000002 2011.5000000000002 47.500000000000007 47.500000000000007 2009.5000000000002 47.500000000000007 4.5000000000000009 1.5000000000000002 1113.5000000000002 2013.5000000000002 2.5000000000000004 1.5000000000000002 2014.5000000000002 65.875000000000014 5.5000000000000009 2011.5000000000002 2013.5000000000002 13.500000000000002 11.500000000000002 29.500000000000004 2013.5000000000002 9.5000000000000018 2.5000000000000004 2012.5000000000002 2011.5000000000002 1113.5000000000002 46.500000000000007 39.500000000000007
decision_type=2 2 2 2 2 2 2 2 2 2 2 2 2 2 2 2 2 2 2 2 2 2 2 2 2 2 2 2 2 2
left_child=2 20 5 7 6 8 13 10 15 11 12 19 -4 -3 -13 22 -14 18 28 -10 26 29 -1 -20 25 -11 -2 -15 -5 -8
right_child=1 4 3 17 -6 -7 21 -9 9 24 -12 14 16 27 -16 -17 -18 -19 23 -21 -22 -23 -24 -25 -26 -27 -28 -29 -30 -31
leaf_value=-0.0026456269772191445 0.0035457517172618543 0.0011251258342644113 0.0033588841069149993 -0.0026272674263291794 0.0033419178458437074 -0.00022803619864542068 0.00035493648701584164 0.0017659432128868094 -0.00375249655821534 0.00021640806241104437 0.010162415599822998 -0.00038453434859295318 -0.00048579533820269043 0.002078314268061575 -0.0086502789036103332 -0.0013625665117168349 -0.0063055807160926148 -0.00040496006226998837 -0.0076941751774513359 -0.0055086248219313105 0.0056948080065335202 0.0026430831156925953 -0.0012902267011023114 -0.00022602561002665937 -0.0011740486596730905 0.0083451092129338527 0.0023119540370624874 0.011385974600052959 0.0013935225961860494 0.0014065527798197981
leaf_count=45588 40891 65793 2017 32919 16069 13605 72598 8726 21403 886 300 3585 105500 54055 477 60329 745 8964 330 9151 3310 4548 12919 7628 18636 373 14956 191 1025 15727
internal_value=0 0.173726 -0.1411 -0.0735444 0.131956 -0.201862 0.116693 -0.0261884 -0.215916 -0.283987 -0.0424877 -0.393543 -0.0454215 0.157068 -0.135518 -0.184691 -0.0526604 -0.182739 -0.213168 -0.427846 0.335407 0.0645067 -0.234634 -0.0535713 -0.0933657 0.262467 0.321534 0.211109 -0.250585 0.0542186
internal_count=643244 288138 355106 168154 228981 186952 212912 117288 173347 54511 108562 34616 108262 120039 4062 118836 106245 50866 41902 30554 59157 92873 58507 7958 19895 1259 55847 54246 33944 88325
shrinkage=0.01


Tree=10
num_leaves=31
num_cat=0
split_feature=1 5 1 18 7 16 6 7 7 7 6 7 1 5 9 16 5 18 12 12 6 6 12 12 0 16 16 10 11 7
split_gain=3785.04 2003.24 1653.29 1145.23 826.809 775.942 745.894 676.595 634.602 392.648 385.876 431.891 364.217 321.774 407.418 319.962 313.81 311.826 308.718 464.143 268.34 268.083 265.231 251.167 222.339 221.152 218.935 216.085 211.473 192.322
threshold=4.5000000000000009 1.5000000000000002 1.0000000180025095e-35 49.125000000000007 495.00000000000006 50.500000000000007 1.5000000000000002 1615.0000000000002 285.00000000000006 26740.000000000004 2.5000000000000004 18015.000000000004 5.5000000000000009 2.5000000000000004 2003.5000000000002 48.500000000000007 2.5000000000000004 50.625000000000007 2013.5000000000002 2012.5000000000002 1.5000000000000002 2.5000000000000004 2013.5000000000002 2014.5000000000002 1113.5000000000002 47.500000000000007 47.500000000000007 1.0000000180025095e-35 36.500000000000007 1855.0000000000002
decision_type=2 2 2 2 2 2 2 2 2 2 2 2 2 2 2 2 2 2 2 2 2 2 2 2 2 2 2 2 2 2
left_child=2 4 5 8 21 17 9 13 28 25 11 22 -12 24 -15 18 -3 -1 19 20 -10 -2 27 -24 -8 -5 29 -6 -4 -9
right_child=1 16 3 6 10 -7 7 26 15 -11 12 -13 -14 14 -16 -17 -18 -19 -20 -21 -22 -23 23 -25 -26 -27 -28 -29 -30 -31
leaf_value=0.0007030409226707324 -0.0019182721540063445 0.0027287912337718156 0.00057595409652622857 -9.4696526202565983e-06 -0.0035706099626112487 0.0062730296169501145 0.003040866989970551 -0.0028974341514663082 -0.0012588728966674322 -0.0033304776792884945 -0.0021222334408733255 -0.0086766221764688258 -0.0092559343289688508 -0.0015230524504850588 0.0023553709300767802 0.0011901836504145725 -0.00043489145477510746 0.0018187935378602103 3.0940577446507587e-05 -0.002045196827463036 -0.00013680349235264101 0.00080508846270643916 -0.00014294470384263185 -0.0086993867325722112 0.010558411671006265 0.0015892158302016047 0.0025280436183102799 -0.0055932447396727968 0.0031075142073275501 0.00057016614258924715
leaf_count=45123 9922 3351 20439 118432 13612 3268 18446 1636 41433 3411 16574 2116 748 3952 8608 8093 48712 56302 31513 35291 43890 5686 2700 393 402 9335 5696 8631 3935 71594
internal_value=0 -0.166869 0.0351014 0.00743777 -0.290808 0.147694 0.0527617 0.113358 -0.0518614 0.00179417 -0.359897 -0.43364 -0.243028 0.237494 0.113503 -0.0747304 -0.0231263 0.132241 -0.0850376 -0.108064 -0.0681682 -0.0926151 -0.397392 -0.123014 0.320121 0.0107335 0.0639587 -0.435546 0.0984656 0.0492698
internal_count=643244 112445 530799 426106 60382 104693 241512 110334 184594 131178 44774 27452 17322 31408 12560 160220 52063 101425 152127 120614 85323 15608 25336 3093 18848 127767 78926 22243 24374 73230
shrinkage=0.01


Tree=11
num_leaves=31
num_cat=0
split_feature=2 1 6 18 7 14 7 18 18 7 7 1 6 7 11 5 17 7 7 8 9 8 9 11 7 1 0 7 7 9
split_gain=15433.8 1878.73 1399.66 820.708 810.315 685.353 553.645 451.26 438.773 421.093 467.363 406.205 364.254 326.219 295.543 293.011 377.825 280.055 271.973 259.06 271.006 325.859 251.286 228.962 274.092 223.796 218.626 204.872 202.275 249.496
threshold=1.0000000180025095e-35 1.0000000180025095e-35 1.5000000000000002 41.125000000000007 1615.0000000000002 11.500000000000002 25780.000000000004 67.125000000000014 39.125000000000007 285.00000000000006 295.00000000000006 5.5000000000000009 1.5000000000000002 355.00000000000006 36.500000000000007 2.5000000000000004 116.50000000000001 285.00000000000006 255.00000000000003 10.500000000000002 2008.5000000000002 2.5000000000000004 2011.5000000000002 39.500000000000007 4000.0000000000005 4.5000000000000009 1113.5000000000002 1855.0000000000002 1455.0000000000002 2012.5000000000002
decision_type=2 2 2 2 2 2 2 2 2 2 2 2 2 2 2 2 2 2 2 2 2 2 2 2 2 2 2 2 2 2
left_child=2 -2 6 14 15 8 7 9 17 -1 -11 27 -10 -14 22 26 -17 -3 -16 20 -9 -22 -4 24 -12 -8 -5 -6 29 -23
right_child=1 5 3 4 11 -7 25 19 12 10 23 -13 13 -15 18 16 -18 -19 -20 -21 21 28 -24 -25 -26 -27 -28 -29 -30 -31
leaf_value=-0.00089221201959590853 0.0033081539655709581 0.0020865659080797024 -0.0022077146627011257 0.0019033886128230898 -0.0041551666852758214 0.0035227081936884076 -0.0043065322368745981 -0.0016879527158040763 0.0010451324730289843 -0.0098578164092327763 -0.0034817354044251996 -0.0084557130057433694 0.0042887629325164076 0.0018391802206753742 0.0066488506511235843 0.0013684241863092385 -0.0024110140506218257 0.00033001271131852564 -0.0005543912542196166 -0.0026441719565214188 -0.0030639682009514228 -0.000465969258446016 -0.00035670891474531721 -0.0016625072275669168 -0.0020540020342812953 -0.0099544165341979227 0.010108060862902788 -0.00057773128456298586 -0.00080631132274340631 0.0025039644615733308
leaf_count=15124 59026 10504 45816 17263 1639 13164 2233 45503 76253 906 35730 675 6016 56445 546 7322 4141 66791 13109 14654 4236 5983 8732 18410 21560 1023 331 68698 16046 5365
internal_value=0 0.171724 -0.13976 -0.0736118 -0.0159563 0.130749 -0.199356 -0.192104 0.117249 -0.241708 -0.271812 -0.0735184 0.150892 0.207511 -0.158205 0.124719 0.000310501 0.0568719 -0.0266367 -0.142532 -0.119376 -0.0482806 -0.191141 -0.263267 -0.294444 -0.608104 0.205775 -0.0661093 -0.00836751 0.0938128
internal_count=643244 288199 355045 168272 100069 229173 186773 183517 216009 91730 76606 71012 138714 62461 68203 29057 11463 77295 13655 91787 77133 31630 54548 75700 57290 3256 17594 70337 27394 11348
shrinkage=0.01


Tree=12
num_leaves=31
num_cat=0
split_feature=1 15 16 6 18 15 7 18 7 6 7 15 16 1 7 7 7 7 12 18 7 1 12 12 6 12 7 1 12 1
split_gain=3645.14 1624.76 1766.82 1105.67 1020.88 936.831 628.732 607.813 550.027 480.474 648.385 378.35 394.884 369.6 341.402 322.251 317.226 287.444 279.218 308.955 352.521 272.008 249.17 491.068 322.313 245.847 283.039 241.181 240.1 235.597
threshold=4.5000000000000009 7.5000000000000009 50.500000000000007 1.5000000000000002 24158.875000000004 23.500000000000004 285.00000000000006 24166.125000000004 25780.000000000004 1.5000000000000002 1615.0000000000002 28.500000000000004 12.500000000000002 1.0000000180025095e-35 26740.000000000004 11870.000000000002 14015.000000000002 285.00000000000006 2013.5000000000002 64.875000000000014 305.00000000000006 5.5000000000000009 2013.5000000000002 2012.5000000000002 1.5000000000000002 2009.5000000000002 1615.0000000000002 1.0000000180025095e-35 2014.5000000000002 5.5000000000000009
decision_type=2 2 2 2 2 2 2 2 2 2 2 2 2 2 2 2 2 2 2 2 2 2 2 2 2 2 2 2 2 2
left_child=1 7 4 8 6 -4 -3 13 17 14 -11 16 -13 -1 27 25 22 -2 19 20 -19 -17 23 24 -8 26 -5 -6 -20 -21
right_child=3 2 5 15 9 -7 11 -9 -10 10 -12 12 -14 -15 -16 21 -18 18 28 29 -22 -23 -24 -25 -26 -27 -28 -29 -30 -31
leaf_value=0.0022601144115696028 -0.00081517504678561142 0.00086529450432546969 0.004975228442398733 0.0019550010466013769 0.0011333754516535579 -0.0017517662579303345 -0.0014544823753216975 0.0023823404710179848 -0.009854872738214197 0.0024141272157744676 0.00048015054183103299 -0.0013375321262668824 0.0016823824045514651 0.00052875321234499507 -0.0034882454781083511 -0.0017910994761809792 0.00037249296055271184 -0.017012137030633753 0.00016067203835342324 -0.002467004177214906 -0.0038861911366710701 -0.008371155926212669 -0.00013889685063428803 -0.0023448689307845952 -0.00030286690237454254 -0.00098055841869432387 -0.00038322780311285799 -0.00014819257857291859 -0.0058714413995252981 0.0040305974286485094
leaf_count=15317 8994 27994 10561 8402 18218 2575 48289 39879 1023 24201 61105 6736 12122 63222 2728 9068 17845 207 4841 24584 17709 675 25709 29659 48928 22120 13487 75711 764 571
internal_value=0 0.0344469 0.00479931 -0.163756 -0.00707364 0.365656 -0.0533487 0.137692 -0.258652 0.0481834 0.102881 -0.0740354 0.0603681 0.086641 -9.09484e-05 -0.060137 -0.0889071 -0.245759 -0.276106 -0.303428 -0.403785 -0.224697 -0.103661 -0.121852 -0.087489 -0.0237057 0.0514291 0.0100374 -0.0661546 -0.231951
internal_count=643244 530799 412381 112445 399245 13136 217282 118418 58693 181963 85306 189288 18858 78539 96657 53752 170430 57670 48676 43071 17916 9743 152585 126876 97217 44009 21889 93929 5605 25155
shrinkage=0.01


Tree=13
num_leaves=31
num_cat=0
split_feature=2 1 6 12 7 16 7 18 12 7 12 6 7 7 0 16 8 7 18 17 8 8 7 12 7 1 12 6 7 1
split_gain=15018.3 1830.34 1350.48 800.45 729.461 658.127 533.189 436.594 482.991 532.907 420.525 417.441 390.365 376.842 367.983 319.535 253.787 233.414 252.655 222.863 298.563 259.883 226.254 221.151 217.688 213.251 210.642 203.353 202.994 201.882
threshold=1.0000000180025095e-35 1.0000000180025095e-35 1.5000000000000002 2011.5000000000002 355.00000000000006 47.500000000000007 25780.000000000004 67.125000000000014 2013.5000000000002 285.00000000000006 2011.5000000000002 1.5000000000000002 305.00000000000006 355.00000000000006 1113.5000000000002 47.500000000000007 10.500000000000002 185.00000000000003 49.125000000000007 71.500000000000014 2.5000000000000004 8.5000000000000018 525.00000000000011 2013.5000000000002 3775.0000000000005 4.5000000000000009 2013.5000000000002 2.5000000000000004 235.00000000000003 5.5000000000000009
decision_type=2 2 2 2 2 2 2 2 2 2 2 2 2 2 2 2 2 2 2 2 2 2 2 2 2 2 2 2 2 2
left_child=2 -2 6 4 17 10 7 8 9 -1 11 28 -11 -13 15 27 19 -4 -19 20 -9 22 -22 -12 -14 -8 -5 -6 -3 -29
right_child=1 5 3 26 14 -7 25 16 -10 12 23 13 24 -15 -16 -17 -18 18 -20 -21 21 -23 -24 -25 -26 -27 -28 29 -30 -31
leaf_value=-0.00093408792123922532 0.0032642710327504686 0.0023781521111494656 0.00084676679140757174 -0.0021056350809018805 0.0027877101036715836 0.00323611801700772 -0.0042431028387740757 -0.002959269856549387 -0.0010066765697950087 -0.010858628419876828 -2.5981198158643832e-05 0.00414469958501721 -0.0035471773819559511 0.0017343913470358552 0.0099870409409085065 0.0013710749540732806 -0.0026116628921233616 0.00062211161843001223 0.0052681577156897018 -0.0016535089911663362 0.0028764457225695546 -0.0013828418514586485 6.4599084794938665e-06 0.0013058683444715797 -0.0022747522606514502 -0.0097563238329648281 -0.00052625581019495019 -0.00074843685124559832 0.00077911181918114704 -0.0059332027908867036
leaf_count=13025 59026 8849 6814 40314 1616 16145 2233 4536 20002 653 38441 7233 36896 62854 331 7821 14654 1788 3389 43118 3380 11435 14664 18452 21154 1023 10682 94760 77199 757
internal_value=0 0.169398 -0.137865 -0.0728889 -0.0274084 0.128954 -0.196405 -0.189288 -0.238079 -0.276397 0.114201 0.141021 -0.316998 0.198314 -0.0540243 -0.0573444 -0.140528 0.206288 0.366354 -0.117608 -0.0570893 -0.0203388 0.0544065 0.0405975 -0.308349 -0.59753 -0.177481 -0.0730013 0.0943554 -0.0789528
internal_count=643244 288199 355045 168272 117276 229173 186773 183517 91730 71728 213028 156135 58703 70087 105285 104954 91787 11991 5177 77133 34015 29479 18044 56893 58050 3256 50996 97133 86048 95517
shrinkage=0.01


Tree=14
num_leaves=31
num_cat=0
split_feature=1 5 15 16 18 15 7 7 18 15 15 16 1 1 7 5 7 0 12 12 0 7 12 11 9 11 14 1 11 0
split_gain=3510.39 1949.49 1568.75 1715.82 986.613 909.582 792.501 610.84 587.379 443.445 370.081 382.407 354.58 347.059 310.003 297.448 276.675 242.15 240.018 476.865 210.549 207.474 195.038 229.623 194.455 191.098 188.686 182.81 181.146 319.168
threshold=4.5000000000000009 1.5000000000000002 7.5000000000000009 50.500000000000007 24158.875000000004 23.500000000000004 495.00000000000006 285.00000000000006 24166.125000000004 28.500000000000004 28.500000000000004 12.500000000000002 1.0000000180025095e-35 1.0000000180025095e-35 14015.000000000002 2.5000000000000004 13085.000000000002 1113.5000000000002 2013.5000000000002 2012.5000000000002 1113.5000000000002 285.00000000000006 2009.5000000000002 39.500000000000007 2013.5000000000002 36.500000000000007 7.5000000000000009 1.0000000180025095e-35 36.500000000000007 447.50000000000006
decision_type=2 2 2 2 2 2 2 2 2 2 2 2 2 2 2 2 2 2 2 2 2 2 2 2 2 2 2 2 2 2
left_child=2 6 8 4 7 -5 22 28 12 13 14 -12 -1 -6 18 -3 20 -15 19 -9 -8 -14 -2 -24 -18 -16 -13 -10 -4 -30
right_child=1 15 3 5 9 -7 16 10 27 -11 11 26 21 17 25 -17 24 -19 -20 -21 -22 -23 23 -25 -26 -27 -28 -29 29 -31
leaf_value=0.0022157785653121177 0.00028515930130391438 0.0026928603107576306 0.00045671491284864747 0.0049021806040818253 0.0012472870554150117 -0.0017262609191863907 -0.0031526896195607154 -0.00086194657721064619 0.0036435535885922582 0.0019764835106653843 -0.0013101343424452802 0.0026009380518712696 0.002022137634636165 6.6687696066144292e-05 -0.00026385764317175136 -0.000387240544522221 -0.0046061223880708687 0.009957306404267589 -0.00014095968689647594 -0.0023105124798501017 0.011235179749189639 0.00030150167219906109 -0.0026532339387752451 0.0020527657888743116 -0.0097000143985405112 0.0020579050049855403 4.4502781440134271e-06 0.001989006462629376 -0.00067164924822284925 0.0043300758672839825
leaf_count=15317 7419 3351 22515 10561 31893 2575 35668 97217 8482 17707 6736 7737 8027 132115 12966 48712 8179 248 25709 29659 102 55195 6971 1218 825 4879 4385 31397 2022 3457
internal_value=0 -0.1607 0.0338044 0.00467235 -0.007028 0.360283 -0.282965 -0.0525198 0.135254 0.0472938 -0.0729101 0.0600165 0.0850688 0.0310854 -0.0876183 -0.0188992 -0.350606 0.00852191 -0.102204 -0.120057 -0.311166 0.0519963 -0.0889277 -0.195328 -0.507286 0.0370935 0.166169 0.234092 0.0853538 0.248421
internal_count=643244 112445 530799 412381 399245 13136 60382 217282 118418 181963 189288 18858 78539 164256 170430 52063 44774 132363 152585 126876 35770 63222 15608 8189 9004 17845 12122 39879 27994 5479
shrinkage=0.01


Tree=15
num_leaves=31
num_cat=0
split_feature=2 1 6 18 7 16 7 18 7 18 7 7 1 6 5 9 7 11 9 0 8 8 7 11 7 16 0 1 7 5
split_gain=14595.8 1765.76 1306.98 783.553 713.576 646.372 515.156 420.964 403.057 427.797 398.414 417.222 390.053 287.489 280.731 354.002 279.713 270.206 263.044 262.399 233.276 390.57 247 227.422 256.908 225.167 206.049 195.193 194.509 189.991
threshold=1.0000000180025095e-35 1.0000000180025095e-35 1.5000000000000002 38.125000000000007 1615.0000000000002 47.500000000000007 25780.000000000004 67.125000000000014 285.00000000000006 41.125000000000007 285.00000000000006 295.00000000000006 5.5000000000000009 1.5000000000000002 2.5000000000000004 2003.5000000000002 355.00000000000006 11.500000000000002 2008.5000000000002 761.50000000000011 2.5000000000000004 8.5000000000000018 525.00000000000011 39.500000000000007 4000.0000000000005 47.500000000000007 1113.5000000000002 4.5000000000000009 305.00000000000006 1.5000000000000002
decision_type=2 2 2 2 2 2 2 2 2 2 2 2 2 2 2 2 2 2 2 2 2 2 2 2 2 2 2 2 2 2
left_child=2 -2 6 17 14 8 7 10 -3 -10 -1 -12 25 28 26 -16 -15 19 -9 -4 -20 22 -22 24 -13 -6 29 -8 -11 -5
right_child=1 5 3 4 12 -7 27 18 9 13 11 23 -14 16 15 -17 -18 -19 20 -21 21 -23 -24 -25 -26 -27 -28 -29 -30 -31
leaf_value=-0.00086652053933255579 0.0032130395814719565 0.0023018414463375518 -0.0017773185552429421 0.0013227279351487519 -0.00079980631006736319 0.0032062916073816593 -0.004255771629741798 -0.0018357609649404911 0.00034165761587684593 -0.0042586325377779698 -0.0093804433173037428 -0.0033842848248137975 -0.0081952701209153482 0.0071758809532235478 -0.002358550135459781 0.0012059752884689132 0.0017636698301434857 -0.001094909080354928 -0.0029608286765077118 -0.0041401338368179472 0.0030349679988010722 -0.001581654097717459 -6.0079188547649534e-06 -0.0015869174211919545 -0.0020030466674486463 0.0013194424052296611 0.009771186066734279 -0.0096183614120207202 0.00093006097557667882 0.0042261141911872592
leaf_count=15286 59199 25755 16765 15341 66846 16115 2159 53564 68945 731 906 35768 690 972 4339 7785 54315 41656 4243 6531 3286 16441 14271 18412 21597 5420 326 990 61948 2642
internal_value=0 0.167369 -0.135563 -0.0716493 -0.0175741 0.127537 -0.193123 -0.186252 0.112905 0.0967448 -0.23407 -0.263456 -0.0712309 0.133319 0.111056 -0.00697156 0.185882 -0.157725 -0.138348 -0.243973 -0.074997 -0.0474052 0.0563147 -0.25539 -0.286427 -0.0640861 0.189212 -0.594169 0.0869547 0.174928
internal_count=643244 287980 355264 168341 103389 228781 186923 183774 212666 186911 91969 76683 72956 117966 30433 12124 55287 64952 91805 23296 38241 33998 17557 75777 57365 72266 18309 3149 62679 17983
shrinkage=0.01


Tree=16
num_leaves=31
num_cat=0
split_feature=2 1 6 18 7 16 7 16 12 6 1 18 12 7 7 7 5 9 11 0 9 16 12 8 8 7 0 1 7 5
split_gain=14305.4 1730.62 1280.97 767.96 699.376 633.509 504.905 413.715 401.785 397.213 382.29 379.889 452.812 471.335 375.714 322.087 275.144 346.957 264.829 257.177 239.368 220.686 215.777 212.288 353.473 228.206 201.948 191.309 189.879 186.211
threshold=1.0000000180025095e-35 1.0000000180025095e-35 1.5000000000000002 38.125000000000007 1615.0000000000002 47.500000000000007 25780.000000000004 47.500000000000007 2011.5000000000002 1.5000000000000002 5.5000000000000009 65.875000000000014 2013.5000000000002 285.00000000000006 355.00000000000006 305.00000000000006 2.5000000000000004 2003.5000000000002 11.500000000000002 761.50000000000011 2008.5000000000002 47.500000000000007 2013.5000000000002 2.5000000000000004 8.5000000000000018 525.00000000000011 1113.5000000000002 4.5000000000000009 235.00000000000003 1.5000000000000002
decision_type=2 2 2 2 2 2 2 2 2 2 2 2 2 2 2 2 2 2 2 2 2 2 2 2 2 2 2 2 2 2
left_child=2 -2 6 18 16 8 7 11 9 28 21 12 13 -1 -11 -15 26 -18 19 -4 -13 -6 -10 -22 25 -25 29 -8 -3 -5
right_child=1 5 3 4 10 -7 27 -9 22 14 -12 20 -14 15 -16 -17 17 -19 -20 -21 23 -23 -24 24 -26 -27 -28 -29 -30 -31
leaf_value=-0.0010609220201368292 0.0031809091788249193 0.0023076093927870463 -0.0017595453736642026 0.0013095006548088808 -0.00079180824509894512 0.0031742287072130098 -0.0042132139135704627 -0.00015062290574537217 -3.3373325063626577e-05 0.0041033593937652478 -0.0081133175054164362 -0.0019521781554832026 -0.0010814265950047797 -0.010552018904720977 0.0016906813361655809 -0.003159753142439093 -0.0023349646455354429 0.0011939155363866508 -0.0010839599854920575 -0.0040987325105640042 -0.00307411844503432 0.001306247961655941 0.0012820141614275911 0.0028908539028692508 -0.0016979005473630228 -0.00014785761344986197 0.0096734741677535815 -0.0095221777269710803 0.00076390275552917753 0.0041838530474422823
leaf_count=12146 59199 8888 16765 15341 66846 16115 2159 13379 38147 7192 690 50033 18796 596 62938 53319 4339 7785 41656 6531 3918 5420 18528 3038 15297 13252 326 990 76973 2642
internal_value=0 0.165695 -0.134208 -0.0709328 -0.0173983 0.126261 -0.191192 -0.184389 0.111776 0.137976 -0.0705186 -0.197684 -0.24509 -0.284055 0.193811 -0.324147 0.109945 -0.00690184 -0.156148 -0.241533 -0.150655 -0.0634453 0.0396649 -0.0878585 -0.0606255 0.0418846 0.18732 -0.588228 0.0923701 0.173179
internal_count=643244 287980 355264 168341 103389 228781 186923 183774 212666 155991 72956 170395 84857 66061 70130 53915 30433 12124 64952 23296 85538 72266 56675 35505 31587 16290 18309 3149 85861 17983
shrinkage=0.01


Tree=17
num_leaves=31
num_cat=0
split_feature=2 1 6 12 7 16 7 16 12 6 18 12 7 7 0 7 16 7 18 9 12 9 12 7 11 8 8 7 1 7
split_gain=14020.7 1696.18 1255.48 753.553 693.128 620.902 494.857 405.483 393.79 389.309 372.329 443.801 461.955 368.237 333.282 315.678 310.34 238.642 245.052 234.605 211.483 209.988 231.637 215.761 212.613 208.063 346.439 223.665 187.502 186.1
threshold=1.0000000180025095e-35 1.0000000180025095e-35 1.5000000000000002 2011.5000000000002 355.00000000000006 47.500000000000007 25780.000000000004 47.500000000000007 2011.5000000000002 1.5000000000000002 65.875000000000014 2013.5000000000002 285.00000000000006 355.00000000000006 1113.5000000000002 305.00000000000006 47.500000000000007 185.00000000000003 49.125000000000007 2008.5000000000002 2013.5000000000002 2011.5000000000002 2013.5000000000002 10585.000000000002 9.5000000000000018 2.5000000000000004 8.5000000000000018 525.00000000000011 4.5000000000000009 235.00000000000003
decision_type=2 2 2 2 2 2 2 2 2 2 2 2 2 2 2 2 2 2 2 2 2 2 2 2 2 2 2 2 2 2
left_child=2 -2 6 4 17 8 7 10 9 29 11 12 -1 -11 16 -14 -6 -4 -19 -12 -10 22 -5 24 -24 -21 27 -27 -8 -3
right_child=1 5 3 21 14 -7 28 -9 20 13 19 -13 15 -15 -16 -17 -18 18 -20 25 -22 -23 23 -25 -26 26 -28 -29 -30 -31
leaf_value=-0.0010503127944116719 0.0031491001075387988 0.0022845333041557063 0.00079642533584400182 -0.0023671166410837116 -0.00070336340238922961 0.0031424864044224373 -0.0041710817741519466 -0.00014911667745885681 -3.3039583051245671e-05 0.0040623257974368963 -0.0019326563798661325 -0.0010706123140182256 -0.010446498744914797 0.0016737745243305252 0.0095767394137894445 -0.0031281556214923694 0.001381299112915794 0.0006274987945008812 0.0052319275198359251 -0.00304337724809952 0.0012691940121220646 -0.00032268917624337528 -0.0074798828673300092 -0.0038659432599811019 0.00072176376102531638 0.0028619453895237863 -0.001680921547080801 -0.00014637904448712552 -0.0094269563217431011 0.00075626371324166925
leaf_count=12146 59199 8888 6801 34234 97098 16115 2159 13379 38147 7192 50033 18796 596 62938 326 53319 7708 1759 3371 3918 18528 8963 333 1530 6218 3038 15297 13252 990 76973
internal_value=0 0.164038 -0.132866 -0.0702235 -0.0259425 0.124999 -0.18928 -0.182545 0.110658 0.136596 -0.195707 -0.242639 -0.281215 0.191873 -0.0518644 -0.320906 -0.0550046 0.202473 0.365314 -0.149149 0.0392682 -0.171313 -0.200765 -0.0484812 0.0304858 -0.08698 -0.0600193 0.0414658 -0.582345 0.0914464
internal_count=643244 287980 355264 168341 117063 228781 186923 183774 212666 155991 170395 84857 66061 70130 105132 53915 104806 11931 5130 85538 56675 51278 42315 8081 6551 35505 31587 16290 3149 85861
shrinkage=0.01


Tree=18
num_leaves=31
num_cat=0
split_feature=2 1 6 18 7 16 7 18 12 7 12 6 1 7 7 5 9 5 1 5 9 7 11 0 7 16 12 7 0 1
split_gain=13741.7 1662.43 1230.5 739.889 677.585 608.546 485.01 397.463 442.201 501.322 385.953 381.562 374.588 360.91 334.879 266.424 340.41 260.569 433.534 360.91 291.696 289.839 258.475 251.393 212.371 211.963 207.274 205.44 193.526 183.77
threshold=1.0000000180025095e-35 1.0000000180025095e-35 1.5000000000000002 38.125000000000007 1615.0000000000002 47.500000000000007 25780.000000000004 67.125000000000014 2013.5000000000002 285.00000000000006 2011.5000000000002 1.5000000000000002 5.5000000000000009 355.00000000000006 305.00000000000006 2.5000000000000004 2003.5000000000002 1.5000000000000002 4.5000000000000009 2.5000000000000004 2012.5000000000002 14230.000000000002 11.500000000000002 761.50000000000011 415.00000000000006 47.500000000000007 2013.5000000000002 3775.0000000000005 1113.5000000000002 4.5000000000000009
decision_type=2 2 2 2 2 2 2 2 2 2 2 2 2 2 2 2 2 2 2 2 2 2 2 2 2 2 2 2 2 2
left_child=2 -2 6 22 15 10 7 8 9 -1 11 -3 25 -13 -11 28 -17 18 -9 20 -19 24 23 -4 -20 -6 -12 -16 -5 -8
right_child=1 5 3 4 12 -7 29 17 -10 14 26 13 -14 -15 27 16 -18 19 21 -21 -22 -23 -24 -25 -26 -27 -28 -29 -30 -31
leaf_value=-0.00087712944075966112 0.0031176090888311741 0.00090531965498308526 -0.0017268197329900804 0.0017066560444335003 -0.00077680201174143318 0.0031110615496311527 -0.0041293709835075552 -0.0011543498743257436 -0.00096095193360832805 -0.010183653290280037 -3.2709185709145776e-05 0.0040217025872860716 -0.0080257244869202798 0.0016570367587544731 -0.0034060295575495348 -0.0023105747332362796 0.0011848523996732399 0.00051805804578545069 -0.00062113979506303585 -0.00092063788070306178 0.0075724131531782141 -0.0074812473115845246 -0.0010598888189330428 -0.0040395557755270855 -0.0032363880294536121 0.0012793724991839635 0.0012565020688220252 -0.0021701139856870051 0.0094809721675387197 -0.0093326867786941662
leaf_count=13191 59199 85861 16765 17983 66846 16115 2159 41845 20107 648 38147 7192 690 62938 36840 4339 7785 1674 4026 28455 902 1329 41656 6531 13574 5420 18528 21183 326 990
internal_value=0 0.162398 -0.131537 -0.0695213 -0.0169743 0.123749 -0.187388 -0.18072 -0.227184 -0.263863 0.109552 0.13523 -0.0692605 0.189954 -0.303466 0.108369 -0.00661092 -0.134172 -0.172241 -0.0596152 0.298818 -0.297818 -0.153164 -0.237519 -0.263815 -0.0622588 0.0388755 -0.295482 0.184508 -0.576522
internal_count=643244 287980 355264 168341 103389 228781 186923 183774 91969 71862 212666 155991 72956 70130 58671 30433 12124 91805 60774 31031 2576 18929 64952 23296 17600 72266 56675 58023 18309 3149
shrinkage=0.01


Tree=19
num_leaves=31
num_cat=0
split_feature=2 1 6 12 7 14 7 7 12 18 12 7 7 0 5 1 5 9 7 14 7 18 6 7 7 9 12 7 11 7
split_gain=13468.2 1629.35 1206.01 725.592 671.328 596.253 475.358 389.621 444.78 389.553 433.401 491.346 328.215 320.184 255.384 424.907 353.728 285.891 284.071 237.563 234.86 238.256 214.055 308.229 208.145 205.172 227.16 211.282 208.331 201.352
threshold=1.0000000180025095e-35 1.0000000180025095e-35 1.5000000000000002 2011.5000000000002 355.00000000000006 11.500000000000002 25780.000000000004 285.00000000000006 2009.5000000000002 67.125000000000014 2013.5000000000002 285.00000000000006 305.00000000000006 1113.5000000000002 1.5000000000000002 4.5000000000000009 2.5000000000000004 2012.5000000000002 14230.000000000002 11.500000000000002 185.00000000000003 49.125000000000007 1.5000000000000002 395.00000000000006 415.00000000000006 2011.5000000000002 2013.5000000000002 10585.000000000002 9.5000000000000018 3775.0000000000005
decision_type=2 2 2 2 2 2 2 2 2 2 2 2 2 2 2 2 2 2 2 2 2 2 2 2 2 2 2 2 2 2
left_child=2 -2 6 4 20 7 9 -3 22 10 11 -1 -13 19 15 -11 17 -16 24 -6 -4 -22 -9 -24 -17 26 -5 28 -28 -14
right_child=1 5 3 25 13 -7 -8 8 -10 14 -12 12 29 -15 16 18 -18 -19 -20 -21 21 -23 23 -25 -26 -27 27 -29 -30 -31
leaf_value=-0.00086835812228169124 0.0030864330170791766 0.0022434669615337311 0.00077566976123233584 -0.0023273215637599604 -0.00066856359821155771 0.0032934726257704094 -0.0057075658519380049 0.00094233139899368274 0.00038052383198542138 -0.0011428063770013961 -0.00095134242377293231 -0.010081816508023667 -0.0033719692733798837 0.0093861623666037803 0.00051287749466026459 -0.00061492841426494845 -0.00091143150285509522 0.0074966890269481555 -0.0074064348271853124 0.0012184317250111152 0.00062627140373776357 0.0051664022270849286 0.0080824651635291976 0.001735484294493447 -0.0032040241981948991 -0.00030582089209655136 -0.0073878157581831957 -0.0038091528098573722 0.00073081857140057046 -0.0021484128370020954
leaf_count=13191 59199 26145 6801 34234 97645 13137 3149 57604 81002 41845 20107 648 36840 326 1674 4026 28455 902 1329 7161 1759 3371 777 50116 13574 8963 333 1530 6218 21183
internal_value=0 0.160774 -0.130222 -0.068826 -0.0253743 0.122511 -0.185514 0.109911 0.0941223 -0.178912 -0.224912 -0.261224 -0.300432 -0.0508854 -0.132831 -0.170519 -0.0590191 0.29583 -0.29484 -0.0539632 0.199421 0.360966 0.135983 0.183239 -0.261177 -0.168022 -0.197134 -0.0463299 0.0318133 -0.292527
internal_count=643244 287980 355264 168341 117063 228781 186923 215644 189499 183774 91969 71862 58671 105132 91805 60774 31031 2576 18929 104806 11931 5130 108497 50893 17600 51278 42315 8081 6551 58023
shrinkage=0.01


Tree=20
num_leaves=31
num_cat=0
split_feature=2 1 6 18 7 16 7 16 12 1 7 7 18 12 7 5 9 5 1 11 7 5 9 6 7 16 7 7 12 7
split_gain=13241.5 1587.79 1181.7 725.327 645.693 584.635 479.638 400.413 387.75 356.73 338.346 411.165 336.396 541.733 309.407 262.072 336.521 261.253 522.459 253.755 246.327 246.115 305.738 245.812 323.929 206.017 188.888 186.429 182.249 189.98
threshold=1.0000000180025095e-35 1.0000000180025095e-35 1.5000000000000002 38.125000000000007 1615.0000000000002 48.500000000000007 26740.000000000004 47.500000000000007 2009.5000000000002 5.5000000000000009 285.00000000000006 295.00000000000006 67.125000000000014 2013.5000000000002 285.00000000000006 2.5000000000000004 2003.5000000000002 1.5000000000000002 4.5000000000000009 11.500000000000002 14230.000000000002 2.5000000000000004 2012.5000000000002 1.5000000000000002 1615.0000000000002 47.500000000000007 415.00000000000006 26740.000000000004 2009.5000000000002 205.00000000000003
decision_type=2 2 2 2 2 2 2 2 2 2 2 2 2 2 2 2 2 2 2 2 2 2 2 2 2 2 2 2 2 2
left_child=2 -2 6 19 15 8 7 10 23 25 -1 -12 13 -13 -10 28 -17 18 -14 -4 -20 22 -19 27 -25 -6 -23 -3 29 -5
right_child=1 5 3 4 9 -7 -8 -9 14 -11 11 12 17 -15 -16 16 -18 21 20 -21 -22 26 -24 24 -26 -27 -28 -29 -30 -31
leaf_value=-0.00086658177036620957 0.0030470518379880963 0.001135427301916916 -0.0023593700551381917 0.00022116198615785521 -0.00076495439917854361 0.0032583384652517377 -0.0058638348950625094 -0.00011224521845955514 0.002063092157075556 -0.0078896251988891681 -0.0080420500122108992 -0.0030311632762622565 -0.0013107951748379438 -0.00095902268919253629 0.00037668843087080163 -0.0023107974716948983 0.0011644260002443693 -0.00070529403561533769 -0.0031850550971902723 -0.0010532918925886692 -0.0077319952206632075 -0.0090141847861461896 0.0073490501737753936 0.0031791650260724236 0.0014734485148881161 0.0012556346502511843 -0.00094908162417187277 -0.0021794812716524627 -0.0005911193288594879 0.0028259346020278586
leaf_count=26190 59223 65051 23151 3651 66996 13137 2924 13326 12560 680 1156 53949 32134 16468 81311 4364 7708 1129 13267 41616 1309 294 809 15457 39805 5457 23659 1742 2707 12014
internal_value=0 0.158751 -0.129755 -0.0690065 -0.017101 0.121015 -0.184557 -0.178161 0.108554 -0.0680429 -0.191219 -0.210213 -0.205411 -0.254656 0.060233 0.105272 -0.00918592 -0.157648 -0.202309 -0.152015 -0.359339 -0.0770746 0.265692 0.145717 0.195054 -0.0612768 -0.104807 0.104897 0.180482 0.221885
internal_count=643244 288286 354958 168344 103577 229063 186614 183690 215926 73133 170364 144174 143018 70417 93871 30444 12072 72601 46710 64767 14576 25891 1938 122055 55262 72453 23953 66793 18372 15665
shrinkage=0.01


Tree=21
num_leaves=31
num_cat=0
split_feature=2 1 6 18 7 14 7 16 18 1 7 7 18 6 7 5 9 5 1 11 0 7 5 9 7 11 7 16 0 5
split_gain=12978 1556.19 1158.19 710.893 632.844 573.001 470.093 392.445 370.542 349.631 331.613 402.983 329.702 313.83 279.476 256.856 329.825 256.054 512.062 248.705 241.885 241.425 241.218 299.654 234.364 209.691 221.01 201.917 192.342 193.376
threshold=1.0000000180025095e-35 1.0000000180025095e-35 1.5000000000000002 38.125000000000007 1615.0000000000002 11.500000000000002 26740.000000000004 47.500000000000007 39.125000000000007 5.5000000000000009 285.00000000000006 295.00000000000006 67.125000000000014 1.5000000000000002 355.00000000000006 2.5000000000000004 2003.5000000000002 1.5000000000000002 4.5000000000000009 11.500000000000002 761.50000000000011 14230.000000000002 2.5000000000000004 2012.5000000000002 285.00000000000006 39.500000000000007 4000.0000000000005 47.500000000000007 1113.5000000000002 1.5000000000000002
decision_type=2 2 2 2 2 2 2 2 2 2 2 2 2 2 2 2 2 2 2 2 2 2 2 2 2 2 2 2 2 2
left_child=2 -2 6 19 15 8 7 10 24 27 -1 -12 25 -10 -15 28 -17 18 -14 20 -4 -20 23 -19 -3 26 -13 -6 29 -5
right_child=1 5 3 4 9 -7 -8 -9 13 -11 11 12 17 14 -16 16 -18 22 21 -21 -22 -23 -24 -25 -26 -27 -28 -29 -30 -31
leaf_value=-0.00085791595026477334 0.0030165813117105826 0.0019065533675013532 -0.0016917368611798107 0.00122267351551754 -0.00075730484170526873 0.0032257550755177737 -0.0058051965115487568 -0.00011112276470065666 0.00095211349431298441 -0.0078107289831309832 -0.0079616294676441209 -0.0033309102408715773 -0.0012976872184528737 0.0039646025774097418 0.0016908949462695498 -0.0022876895041022711 0.0011527817446973054 -0.00069824112807500801 -0.0031532045517876028 -0.0010427589752866945 -0.0039580627780654055 -0.0076546753456467808 -0.001037592251533303 0.0072755597576001666 0.00030029989088108008 -0.0015630724979202573 -0.0019988503290304825 0.0012430782972420184 0.0093640879910767624 0.0041648697898731364
leaf_count=26190 59223 10517 16572 15431 66996 13137 2924 13326 76104 680 1156 33251 32134 5976 56676 4364 7708 1129 13267 41616 6579 1309 23953 809 66653 17250 19916 5457 329 2612
internal_value=0 0.157163 -0.128458 -0.0683164 -0.01693 0.119805 -0.182711 -0.176379 0.107468 -0.0673625 -0.189306 -0.20811 -0.203357 0.138362 0.190777 0.10422 -0.00909406 -0.156071 -0.200286 -0.150495 -0.233578 -0.355746 -0.0763039 0.263035 0.0519206 -0.25211 -0.283193 -0.060664 0.178677 0.16486
internal_count=643244 288286 354958 168344 103577 229063 186614 183690 215926 73133 170364 144174 143018 138756 62652 30444 12072 72601 46710 64767 23151 14576 25891 1938 77170 70417 53167 72453 18372 18043
shrinkage=0.01


Tree=22
num_leaves=31
num_cat=0
split_feature=2 1 6 12 7 14 7 12 7 7 18 12 0 7 5 1 5 7 6 7 7 17 14 18 7 11 12 7 7 7
split_gain=12719.7 1525.22 1135.14 697.643 617.633 561.598 460.738 373.783 362.192 423.525 359.299 545.926 314.871 298.12 284.283 514.153 249.241 246.32 235.846 314.718 230.305 225.043 224.075 224.071 206.53 191.203 189.913 197.046 188.724 182.721
threshold=1.0000000180025095e-35 1.0000000180025095e-35 1.5000000000000002 2011.5000000000002 355.00000000000006 11.500000000000002 26740.000000000004 2009.5000000000002 285.00000000000006 295.00000000000006 67.125000000000014 2013.5000000000002 1113.5000000000002 285.00000000000006 1.5000000000000002 4.5000000000000009 2.5000000000000004 14230.000000000002 1.5000000000000002 1615.0000000000002 185.00000000000003 24.500000000000004 11.500000000000002 49.625000000000007 415.00000000000006 36.500000000000007 2013.5000000000002 25780.000000000004 3775.0000000000005 26740.000000000004
decision_type=2 2 2 2 2 2 2 2 2 2 2 2 2 2 2 2 2 2 2 2 2 2 2 2 2 2 2 2 2 2
left_child=2 -2 6 4 20 7 8 18 -1 -10 11 28 22 -9 15 -12 21 -17 29 -20 25 -16 -6 -22 -18 -4 -5 -28 -11 -3
right_child=1 5 3 26 12 -7 -8 13 9 10 14 -13 -14 -15 16 17 24 -19 19 -21 23 -23 -24 -25 -26 -27 27 -29 -30 -31
leaf_value=-0.00070569007037873553 0.0029864154994253358 0.0011145660361419429 0.00015867468276820645 -0.001967275933586944 -0.00065312445374072884 0.0031934975470411988 -0.0057471445780265763 0.0020233813949110547 -0.007751814290028569 -0.0032779990202170275 -0.0011807639375805558 -0.00083717952258814167 0.0092704471633245876 0.00036802314147198699 0.0057725515701496678 -0.0029634814848182758 -0.008846562651923141 -0.007324549114847291 0.003123108738226191 0.0014418190619243452 0.0006283189394436663 -0.00076937440264080044 0.0011761274061061913 0.005003498739983043 -0.00077506300461018115 0.005886129929856463 -0.00023262315404444967 -0.008163299906549069 -0.0020923966805557535 -0.002167207619144294
leaf_count=28302 59223 65051 6233 40294 97741 13137 2924 12560 1242 37011 34690 17593 329 81311 1119 14413 321 1423 15457 39805 1791 992 7189 3379 25515 643 10422 323 21069 1742
internal_value=0 0.155592 -0.127173 -0.0676332 -0.0251702 0.118607 -0.180884 0.106394 -0.174615 -0.193566 -0.18888 -0.238044 -0.0497173 0.0589511 -0.14147 -0.186233 -0.0605404 -0.335536 0.142881 0.191208 0.189324 0.269837 -0.0527798 0.348784 -0.0875348 0.069427 -0.165228 -0.0471023 -0.284791 0.102898
internal_count=643244 288286 354958 168344 117305 229063 186614 215926 183690 155388 154146 75673 105259 93871 78473 50526 27947 15836 122055 55262 12046 2111 104930 5170 25836 6876 51039 10745 58080 66793
shrinkage=0.01


Tree=23
num_leaves=31
num_cat=0
split_feature=2 1 6 18 7 14 7 16 12 1 7 7 18 12 7 5 9 5 1 11 0 7 5 9 6 7 16 0 0 5
split_gain=12466.6 1494.87 1112.55 685.198 613.36 550.423 451.569 384.693 366.344 342.61 318.453 387.109 316.603 517.752 292.188 248.605 323.776 245.845 492.164 243 236.006 232.013 231.712 289.935 231.153 308.455 195.112 185.741 184.319 190.021
threshold=1.0000000180025095e-35 1.0000000180025095e-35 1.5000000000000002 38.125000000000007 1615.0000000000002 11.500000000000002 26740.000000000004 47.500000000000007 2009.5000000000002 5.5000000000000009 285.00000000000006 295.00000000000006 67.125000000000014 2013.5000000000002 285.00000000000006 2.5000000000000004 2003.5000000000002 1.5000000000000002 4.5000000000000009 11.500000000000002 761.50000000000011 14230.000000000002 2.5000000000000004 2012.5000000000002 1.5000000000000002 1615.0000000000002 47.500000000000007 1108.5000000000002 1113.5000000000002 1.5000000000000002
decision_type=2 2 2 2 2 2 2 2 2 2 2 2 2 2 2 2 2 2 2 2 2 2 2 2 2 2 2 2 2 2
left_child=2 -2 6 19 15 8 7 10 24 26 -1 -12 13 -13 -10 28 -17 18 -14 20 -4 -20 23 -19 -3 -26 -6 -18 29 -5
right_child=1 5 3 4 9 -7 -8 -9 14 -11 11 12 17 -15 -16 16 27 22 21 -21 -22 -23 -24 -25 25 -27 -28 -29 -30 -31
leaf_value=-0.00084227989046180957 0.0029565513191655434 0.001018685737623262 -0.0016614449142769011 0.0012026663551248978 -0.00074337299959872059 0.003161562570337114 -0.0056896730595640543 -9.242643708867954e-05 0.0020031475612327676 -0.0077266553238321866 -0.0078044950050482308 -0.0029458619582664537 -0.0012729027107934688 -0.00092010396610496168 0.00036434290459579972 -0.0022636782313041758 0.001481121316034346 -0.00069770338752577572 -0.0030920376926029322 -0.0010195076967079021 -0.0039000581345254148 -0.0075048830430743743 -0.0010184750070404893 0.0071457254872294733 0.0030918776721223112 0.0014274008645764739 0.0012230127095778154 -0.0060262433961843663 0.0091777427209184526 0.0041192329460346287
leaf_count=26190 59223 66793 16572 15431 66996 13137 2924 13326 12560 680 1156 53949 32134 16468 81311 4364 7363 1129 13267 41616 6579 1309 23953 809 15457 39805 5457 345 329 2612
internal_value=0 0.154036 -0.125902 -0.0669569 -0.0165077 0.117421 -0.179075 -0.172869 0.10533 -0.0661578 -0.185668 -0.204095 -0.199437 -0.247211 0.0583616 0.102762 -0.00871645 -0.153099 -0.196423 -0.147637 -0.229761 -0.348833 -0.0749386 0.257646 0.141453 0.189296 -0.0595269 0.11451 0.176014 0.162488
internal_count=643244 288286 354958 168344 103577 229063 186614 183690 215926 73133 170364 144174 143018 70417 93871 30444 12072 72601 46710 64767 23151 14576 25891 1938 122055 55262 72453 7708 18372 18043
shrinkage=0.01


Tree=24
num_leaves=31
num_cat=0
split_feature=2 1 6 12 7 14 7 16 12 7 7 18 12 0 7 16 5 1 7 5 9 6 7 7 18 9 12 7 11 11
split_gain=12218.5 1465.12 1090.41 671.747 598.877 539.469 442.583 377.038 359.054 312.116 379.405 310.303 507.449 302.504 286.373 277.988 240.952 482.37 227.395 227.1 284.165 226.553 302.317 226.328 217.769 199.384 222.228 199.971 202.968 187.882
threshold=1.0000000180025095e-35 1.0000000180025095e-35 1.5000000000000002 2011.5000000000002 355.00000000000006 11.500000000000002 26740.000000000004 47.500000000000007 2009.5000000000002 285.00000000000006 295.00000000000006 67.125000000000014 2013.5000000000002 1113.5000000000002 285.00000000000006 47.500000000000007 1.5000000000000002 4.5000000000000009 14230.000000000002 2.5000000000000004 2012.5000000000002 1.5000000000000002 1615.0000000000002 185.00000000000003 49.625000000000007 2011.5000000000002 2013.5000000000002 10585.000000000002 9.5000000000000018 36.500000000000007
decision_type=2 2 2 2 2 2 2 2 2 2 2 2 2 2 2 2 2 2 2 2 2 2 2 2 2 2 2 2 2 2
left_child=2 -2 6 4 23 8 7 9 21 -1 -11 12 -12 15 -10 -6 17 -13 -19 20 -18 -3 -23 29 -25 26 -5 28 -28 -4
right_child=1 5 3 25 13 -7 -8 -9 14 10 11 16 -14 -15 -16 -17 19 18 -20 -21 -22 22 -24 24 -26 -27 27 -29 -30 -31
leaf_value=-0.00083385708632567515 0.0029269858312442948 0.0010084988788082129 0.00014642885825953876 -0.0022596886259563203 -0.00066389147850259226 0.0031299469143537101 -0.0056327764250841683 -9.1502167777350992e-05 0.0019831161076780484 -0.0077264500588902097 -0.0029164033368711635 -0.0012601736753124889 -0.00091090290293434611 0.0090859653929808958 0.00036069948214185251 0.0012971334288200609 -0.00069072636146662997 -0.0030611172900842326 -0.0074298342327252286 -0.0010082902302902784 0.0070742682745387813 0.003060958885675643 0.0014131268822379854 0.00062766866274937552 0.004940891243722754 -0.0002615433804435014 -0.0073445746696912326 -0.0036726055081028452 0.00076395818740669576 0.0058239163341026745
leaf_count=26190 59223 66793 6233 34126 97120 13137 2924 13326 12560 1156 53949 32134 16468 329 81311 7810 1129 13267 1309 23953 809 15457 39805 1791 3379 8911 325 1520 6157 643
internal_value=0 0.152496 -0.124643 -0.0662873 -0.0246199 0.116247 -0.177285 -0.17114 0.104277 -0.183811 -0.202054 -0.197442 -0.244739 -0.0487913 0.057778 -0.0517931 -0.151568 -0.194459 -0.345345 -0.0741892 0.25507 0.140038 0.187403 0.186592 0.34467 -0.162053 -0.190799 -0.0408105 0.0357406 0.0677352
internal_count=643244 288286 354958 168344 117305 229063 186614 183690 215926 170364 144174 143018 70417 105259 93871 104930 72601 46710 14576 25891 1938 122055 55262 12046 5170 51039 42128 8002 6482 6876
shrinkage=0.01


Tree=25
num_leaves=31
num_cat=0
split_feature=1 5 16 18 7 7 1 6 7 1 7 6 7 1 16 1 12 12 5 9 5 11 12 12 6 6 0 10 7 0
split_gain=2836.44 1848.49 1310.58 1151.02 700.275 664.546 663.534 521.828 550.617 337.004 328.766 290.75 361.092 288.795 351.096 288.469 269.348 437.979 264.694 365.482 254.124 245.213 244.822 249.663 241.695 234.691 228.973 197.067 192.013 187.432
threshold=4.5000000000000009 1.5000000000000002 50.500000000000007 50.125000000000007 495.00000000000006 285.00000000000006 1.0000000180025095e-35 1.5000000000000002 1615.0000000000002 1.0000000180025095e-35 26740.000000000004 2.5000000000000004 18015.000000000004 1.0000000180025095e-35 51.500000000000007 5.5000000000000009 2013.5000000000002 2012.5000000000002 2.5000000000000004 2003.5000000000002 2.5000000000000004 36.500000000000007 2013.5000000000002 2014.5000000000002 2.5000000000000004 1.5000000000000002 447.50000000000006 1.0000000180025095e-35 1855.0000000000002 1113.5000000000002
decision_type=2 2 2 2 2 2 2 2 2 2 2 2 2 2 2 2 2 2 2 2 2 2 2 2 2 2 2 2 2 2
left_child=2 4 3 5 24 21 -5 10 18 -7 -8 12 22 -4 -15 -13 17 25 29 -20 -3 -1 27 -24 -2 -11 -23 -6 -10 -9
right_child=1 20 13 6 11 9 7 8 28 16 -12 15 -14 14 -16 -17 -18 -19 19 -21 -22 26 23 -25 -26 -27 -28 -29 -30 -31
leaf_value=0.00067996635052418168 -0.0017528076318255282 0.002590099135431121 0.0059750889029771886 0.0016167916948216145 -0.0031852761358885087 0.00032479049498507993 6.0136667165906656e-05 0.0026837819860019451 -0.0029111500284927168 -0.0010758159483975275 -0.0031445126586805254 -0.0019715903663354746 -0.0078554652791514527 0.0038997249388314586 -8.8017571591617849e-05 -0.0084041651172415029 9.4683520242469358e-05 -0.0018525673468876341 -0.0016742711230171899 0.0020902953020884522 -0.00024233984603556598 -0.00028112231112767481 0.00015211076769103211 -0.0082567799348255682 0.00082687511844244642 -5.6090660168509634e-05 0.0044720928841973607 -0.0051105065652093306 0.00054904981503854178 0.0097543372034870918
leaf_count=25344 9913 3388 3311 56879 13628 38695 122784 17770 1639 43916 3287 16454 2131 6591 3320 728 32616 36275 3741 8302 48682 1420 2709 406 5732 46434 3540 8718 74508 383
internal_value=0 -0.143889 0.0309233 0.0229807 -0.262893 -0.0301134 0.0648697 0.0411774 0.0927697 -0.0512266 -0.00234169 -0.326532 -0.390122 0.341812 0.256391 -0.224414 -0.0715668 -0.0924398 0.207037 0.0920882 -0.00580436 0.107791 -0.357027 -0.0943879 -0.0807666 -0.0551744 0.311129 -0.393638 0.0474572 0.283296
internal_count=643244 112489 530755 517533 60419 228240 289293 232414 106343 197936 126071 44774 27592 13222 9911 17182 159241 126625 30196 12043 52070 30304 25461 3115 15645 90350 4960 22346 76147 18153
shrinkage=0.01


Tree=26
num_leaves=31
num_cat=0
split_feature=2 6 14 12 12 6 16 16 12 0 5 5 6 0 9 12 12 11 0 8 0 9 9 8 8 8 8 18 11 11
split_gain=11822.7 1071.29 675.648 653.975 499.212 453.755 388.587 304.835 265.688 258.107 249.384 545.811 227.16 206.439 197.709 221.371 197.645 285.324 221.598 201.503 187.796 184.741 181.55 431.479 253.912 214.05 328.779 298.406 154.561 187.641
threshold=1.0000000180025095e-35 1.5000000000000002 11.500000000000002 2011.5000000000002 2011.5000000000002 1.5000000000000002 47.500000000000007 47.500000000000007 2013.5000000000002 1113.5000000000002 1.5000000000000002 2.5000000000000004 2.5000000000000004 1113.5000000000002 2011.5000000000002 2013.5000000000002 2013.5000000000002 13.500000000000002 88.500000000000014 9.5000000000000018 840.50000000000011 2012.5000000000002 2008.5000000000002 11.500000000000002 3.5000000000000004 4.5000000000000009 8.5000000000000018 61.375000000000007 13.500000000000002 9.5000000000000018
decision_type=2 2 2 2 2 2 2 2 2 2 2 2 2 2 2 2 2 2 2 2 2 2 2 2 2 2 2 2 2 2
left_child=1 6 4 7 5 -2 10 9 28 12 16 21 -3 -7 15 -5 17 18 -1 -18 -19 -12 23 24 -20 -24 27 -27 29 -6
right_child=2 3 -4 14 8 13 -8 -9 -10 -11 11 -13 -14 -15 -16 -17 19 20 22 -21 -22 -23 25 -25 -26 26 -28 -29 -30 -31
leaf_value=-0.0039658032309810342 0.0012163159832226237 0.0029279440738162973 0.0034706163186795391 -0.0022176920844484871 -6.6816630179494151e-05 0.0021501486464050612 -0.00011226349120233828 0.0015836756919894387 0.0015489743616578888 0.008830749580244485 0.0013125382792223714 -0.0015617781103994691 -0.00045975710635336447 0.011039748018934528 -0.00023123247039995225 -0.00036671627591084794 -0.00014004063772206029 -0.0026327042271546038 -0.0015599598824222387 -0.0027845307049527779 -0.0044144742654790995 0.0069814599898752354 -0.0025808294495405287 0.002184961040892071 -0.0032135184702662958 -0.0044051858852119713 -0.0016531098093508592 0.001945692695194528 0.00069737545556182846 -0.0030296163966384952
leaf_count=5056 109632 2017 16533 34243 16093 89151 13609 8616 23682 304 1951 59259 106038 262 8938 7964 8873 21326 17144 4267 8186 815 6966 2117 20261 842 10080 6098 30456 2465
internal_value=0 -0.121825 0.150789 -0.0639093 0.138848 0.16475 -0.173935 -0.0226686 0.067925 -0.0370634 -0.186716 -0.135911 -0.0396521 0.21762 -0.158232 -0.186843 -0.21505 -0.230481 -0.195094 -0.0998796 -0.312693 0.298288 -0.179053 -0.220706 -0.245564 -0.110422 -0.0499864 0.117517 0.0259028 -0.0460356
internal_count=643244 354970 288274 168120 271741 199045 186850 116975 72696 108359 173241 62025 108055 89413 51145 42207 111216 98076 68564 13140 29512 2766 63508 39522 37405 23986 17020 6940 49014 18558
shrinkage=0.01


Tree=27
num_leaves=31
num_cat=0
split_feature=2 1 6 12 7 16 7 16 15 12 6 18 12 7 7 7 0 16 8 9 8 7 18 12 9 12 7 0 8 1
split_gain=11587.4 1443.83 1049.97 640.961 617.229 505.121 430.855 367.953 357.268 329.496 318.894 318.102 403.319 373.66 311.953 294.172 282.454 257.787 230.352 222.283 272.043 215.29 211.939 205.424 193.774 216.965 194.169 186.266 216.364 180.301
threshold=1.0000000180025095e-35 1.0000000180025095e-35 1.5000000000000002 2011.5000000000002 355.00000000000006 47.500000000000007 25780.000000000004 47.500000000000007 29.500000000000004 2011.5000000000002 1.5000000000000002 65.875000000000014 2013.5000000000002 285.00000000000006 355.00000000000006 305.00000000000006 1113.5000000000002 47.500000000000007 10.500000000000002 2008.5000000000002 2.5000000000000004 185.00000000000003 49.125000000000007 2013.5000000000002 2011.5000000000002 2013.5000000000002 25780.000000000004 628.50000000000011 1.5000000000000002 4.5000000000000009
decision_type=2 2 2 2 2 2 2 2 2 2 2 2 2 2 2 2 2 2 2 2 2 2 2 2 2 2 2 2 2 2
left_child=2 -2 6 4 21 8 7 11 9 10 -3 12 13 -1 -12 -15 17 -6 19 -13 27 -4 -23 -11 25 -5 -27 28 -21 -8
right_child=1 5 3 24 16 -7 29 -9 -10 23 14 18 -14 15 -16 -17 -18 -19 -20 20 -22 22 -24 -25 -26 26 -28 -29 -30 -31
leaf_value=-0.00099635590954548969 0.0028843132620117607 0.00073493639005293879 0.00074975827158035846 -0.0021955151558229104 -0.00063896525747387481 0.0028375107699912762 -0.0037283601569477538 -6.0705868508439289e-05 0.002796913068752046 -0.00018620241960218707 0.003687141216671424 -0.0015892319169088657 -0.00092510672649673633 -0.0098825266015783748 0.0014357300154868727 -0.0028642249022870154 0.0088667645715984397 0.0012606739500797932 -0.0025409846477451132 0.0029887657280348789 -7.8616838018630977e-05 0.00064404541907475818 0.0048981829674929088 0.0011247807246816954 -0.00022892014060945431 -4.5658624947777456e-05 -0.0080447024033888231 -0.00054997560612090224 -0.0062007848908637924 -0.0087994477263874781
leaf_count=12072 59243 81520 6794 34243 96929 16157 2205 13368 10557 36484 6862 42486 18775 604 59675 53239 323 7712 13719 298 25414 1775 3442 17776 8938 7648 316 1815 1827 1028
internal_value=0 0.149281 -0.120606 -0.0632702 -0.0224419 0.113288 -0.172195 -0.165824 0.10035 0.0909914 0.115422 -0.178367 -0.221814 -0.258645 0.166792 -0.294295 -0.0470142 -0.0498963 -0.135362 -0.112687 -0.0457667 0.192295 0.345078 0.0243286 -0.15665 -0.184975 -0.0363049 -0.290264 -0.491209 -0.534082
internal_count=643244 288274 354970 168120 116975 229031 186850 183617 212874 202317 148057 170249 84690 65915 66537 53843 104964 104641 85559 71840 29354 12011 5217 54260 51145 42207 7964 3940 2125 3233
shrinkage=0.01


Tree=28
num_leaves=31
num_cat=0
split_feature=2 1 16 18 16 11 7 1 15 1 5 12 7 0 7 7 5 5 1 7 7 7 7 7 7 9 12 12 15 15
split_gain=11356.9 1415.09 843.834 656.074 495.069 441.971 438.237 355.76 350.158 330.345 323.041 322.939 289.511 267.578 256.559 239.188 264.277 338.713 338.407 328.318 230.003 353.14 219.854 212.637 212.175 250.293 201.336 194.983 192.543 574.321
threshold=1.0000000180025095e-35 1.0000000180025095e-35 47.500000000000007 64.875000000000014 47.500000000000007 36.500000000000007 14230.000000000002 5.5000000000000009 29.500000000000004 4.5000000000000009 2.5000000000000004 2011.5000000000002 175.00000000000003 1113.5000000000002 355.00000000000006 425.00000000000006 1.5000000000000002 2.5000000000000004 4.5000000000000009 1255.0000000000002 255.00000000000003 2425.0000000000005 335.00000000000006 285.00000000000006 395.00000000000006 2012.5000000000002 2013.5000000000002 2013.5000000000002 23.500000000000004 20.500000000000004
decision_type=2 2 2 2 2 2 2 2 2 2 2 2 2 2 2 2 2 2 2 2 2 2 2 2 2 2 2 2 2 2
left_child=2 -2 3 5 8 20 7 13 11 -8 -11 14 -7 15 -3 22 18 19 -17 -18 -1 27 23 -5 -24 -26 -13 -22 29 -4
right_child=1 4 28 6 -6 12 9 -9 -10 10 -12 26 -14 -15 -16 16 17 -19 -20 -21 21 -23 24 -25 25 -27 -28 -29 -30 -31
leaf_value=-0.00097568460957330296 0.0028554701415978161 0.0021755921326343818 0.00024622340223092224 3.3732829289668723e-05 0.0028091356773610053 0.0029409555989299658 -0.0012919893092010022 0.0047345762839830193 0.0027689439367788071 -0.0051613243663083102 -0.00115784645996647 -0.00018434040009954522 -0.0010981474793593225 0.0086537745354795144 0.00097491550601950627 -0.00088185153346211857 0.0067720046016825032 -0.00060716965636283524 -0.0024951323932366422 -0.00011413592526647009 -0.003165933791604156 -0.0017414771911731239 0.0047553792610503642 -0.0035126159060830547 -0.0013064387311924578 0.0059037928759288266 0.001113532894129551 -0.0011979609316736146 -0.00051638998127778116 0.0049337112439223141
leaf_count=15673 59243 20687 12302 18285 16157 1853 17585 1207 10557 5445 3200 36484 41932 304 127370 41819 1252 51349 18869 1549 40609 55901 1844 1863 2085 626 17776 5747 10352 3319
internal_value=0 0.147788 -0.1194 -0.1331 0.112155 -0.178518 -0.089193 -0.0671211 0.099346 -0.207885 -0.367941 0.0900815 -0.0927211 -0.0717868 0.114268 -0.0738285 -0.0930307 -0.0422452 -0.138345 0.296385 -0.210373 -0.227662 0.0154377 -0.0294183 0.213848 0.0358484 0.0240853 -0.292195 0.0541268 0.124218
internal_count=643244 288274 354970 328997 229031 161715 167282 141052 212874 26230 8645 202317 43785 139845 148057 139541 114838 54150 60688 2801 117930 102257 24703 20148 4555 2711 54260 46356 25973 15621
shrinkage=0.01


Tree=29
num_leaves=31
num_cat=0
split_feature=2 1 6 12 7 16 7 16 15 12 6 7 18 12 7 7 0 16 8 7 18 12 17 8 8 7 7 0 5 16
split_gain=11130.9 1386.93 1028.09 620.883 597.958 485.217 420.295 354.671 343.19 316.513 313.088 302.46 300.335 391.655 361.397 287.47 271.315 247.901 222.067 210.266 203.972 197.329 191.099 253.239 217.084 214.466 186.255 185.888 193.032 179.043
threshold=1.0000000180025095e-35 1.0000000180025095e-35 1.5000000000000002 2011.5000000000002 355.00000000000006 47.500000000000007 26740.000000000004 47.500000000000007 29.500000000000004 2011.5000000000002 1.5000000000000002 355.00000000000006 65.875000000000014 2013.5000000000002 285.00000000000006 305.00000000000006 1113.5000000000002 47.500000000000007 10.500000000000002 185.00000000000003 49.125000000000007 2013.5000000000002 74.500000000000014 2.5000000000000004 8.5000000000000018 525.00000000000011 185.00000000000003 628.50000000000011 2.5000000000000004 47.500000000000007
decision_type=2 2 2 2 2 2 2 2 2 2 2 2 2 2 2 2 2 2 2 2 2 2 2 2 2 2 2 2 2 2
left_child=2 -2 6 4 19 8 7 12 9 10 -3 -12 13 14 -1 -16 17 -6 22 -4 -21 -11 23 27 25 26 -25 28 -14 -5
right_child=1 5 3 29 16 -7 -8 -9 -10 21 11 -13 18 -15 15 -17 -18 -19 -20 20 -22 -23 -24 24 -26 -27 -28 -29 -30 -31
leaf_value=-0.00097758708389758856 0.0028269154402762496 0.00071580164733867871 0.00074128867999187574 -0.0017001386119974453 -0.00062026495459649867 0.0027810443002685252 -0.0054612760439700673 -6.5652206202307441e-05 0.0027412544890011705 -0.00018249699949344058 0.0036285138553000442 0.0014116235444487954 -0.0067461496278258693 -0.00090422450496088758 -0.0097520420748419719 -0.002814147516953064 0.0086962346829497043 0.0012425945695112822 -0.0025053262817405935 0.00065713645043726735 0.0048305465733356296 0.0011023975833271569 -0.001582883560649048 0.00092269967760758313 -0.0013234644448500974 -4.2951395893871724e-05 0.005865811983552102 -0.00072671309687268319 -9.1597717842233149e-05 0.00057027330463419183
leaf_count=12072 59243 81520 6794 47397 96929 16157 2913 13389 10557 36484 6862 59675 1553 18775 604 53239 323 7712 13719 1775 3442 17776 39677 1994 10706 14214 1234 2155 606 3748
internal_value=0 0.146311 -0.118206 -0.0614707 -0.021287 0.111033 -0.169255 -0.163286 0.0983526 0.0891807 0.113125 0.164025 -0.17559 -0.217843 -0.254136 -0.289198 -0.0454726 -0.0482973 -0.133912 0.190071 0.341061 0.0238445 -0.111734 -0.0548321 -0.0202545 0.0485481 0.281235 -0.280444 -0.487831 -0.153376
internal_count=643244 288274 354970 168120 116975 229031 186850 183937 212874 202317 148057 66537 170548 84690 65915 53843 104964 104641 85858 12011 5217 54260 72139 32462 28148 17442 3228 4314 2159 51145
shrinkage=0.01


Tree=30
num_leaves=31
num_cat=0
split_feature=2 1 6 18 7 14 7 1 18 7 18 7 7 6 7 11 5 17 8 9 9 8 7 7 11 7 7 0 8 0
split_gain=10982.5 1323.1 997.959 597.449 573.076 482.761 406.937 331.792 327.519 322.824 346.176 298.542 365.373 248.22 268.827 237.018 236.252 317.542 232.328 228.913 222.71 270.892 210.581 198.457 187.907 228.945 186.332 184.052 234.315 174.944
threshold=1.0000000180025095e-35 1.0000000180025095e-35 1.5000000000000002 38.125000000000007 1615.0000000000002 11.500000000000002 25780.000000000004 5.5000000000000009 67.125000000000014 285.00000000000006 41.125000000000007 285.00000000000006 295.00000000000006 1.5000000000000002 355.00000000000006 39.500000000000007 2.5000000000000004 116.50000000000001 10.500000000000002 2011.5000000000002 2008.5000000000002 2.5000000000000004 255.00000000000003 305.00000000000006 39.500000000000007 4000.0000000000005 1855.0000000000002 628.50000000000011 1.5000000000000002 1113.5000000000002
decision_type=2 2 2 2 2 2 2 2 2 2 2 2 2 2 2 2 2 2 2 2 2 2 2 2 2 2 2 2 2 2
left_child=2 -2 6 15 16 9 8 26 11 -3 -11 -1 -13 23 -15 19 -5 -18 20 -4 -10 27 -17 -12 25 -14 -6 28 -22 -16
right_child=1 5 3 4 7 -7 -8 -9 18 10 13 12 24 14 29 22 17 -19 -20 -21 21 -23 -24 -25 -26 -27 -28 -29 -30 -31
leaf_value=-0.00076133031890819115 0.002784938865580342 0.0020323478705665029 -0.0019457329853916189 0.0017238225060161277 -0.0038226589174208537 0.0029614829695221246 -0.0052288239348663983 -0.0074994100714316485 -0.0014262607614216184 0.00028776053584707702 -0.0043700079725331352 -0.0085473316027309138 -0.002993747786390423 0.0066708584332595081 0.0015281941879207118 0.0065006384934769273 0.0011897949376867658 -0.0021489664552844117 -0.00235050164954752 -0.00015475105521563606 0.0032385489067947781 2.7927167643766387e-05 -0.00036450591115001952 0.00080789997856648202 -0.0013397961168903955 -0.0016881663914533884 -0.00048291151492603566 -0.00045752398593439374 -0.0059795015766786717 0.010672860855147952
leaf_count=15166 58984 26207 44491 18278 1711 13207 3179 696 45589 69702 749 924 35727 1050 54939 465 7503 4592 14702 8500 322 27427 11420 63098 18339 21523 70669 1955 1920 210
internal_value=0 0.144928 -0.117831 -0.0619889 -0.0148093 0.11055 -0.168158 -0.0627936 -0.162016 0.0991994 0.0848306 -0.204307 -0.229713 0.117377 0.165845 -0.13722 0.100639 -0.00778026 -0.119834 -0.165845 -0.0978956 -0.0334124 -0.00959075 0.0747157 -0.222073 -0.250292 -0.056186 -0.270009 -0.465559 0.156302
internal_count=643244 288146 355098 168325 103449 229162 186773 73076 183594 215955 189748 91679 76513 120046 56199 64876 30373 12095 91915 52991 77213 31624 11885 63847 75589 57250 72380 4197 2242 55149
shrinkage=0.01


Tree=31
num_leaves=31
num_cat=0
split_feature=2 6 14 18 7 18 7 6 16 7 18 7 7 7 11 5 17 9 8 7 0 7 9 8 11 7 16 0 8 0
split_gain=10764 978.1 632.746 585.56 561.672 441.859 398.839 360.874 343.596 334.179 291.099 274.743 253.877 334.836 232.301 231.551 311.223 224.358 209.581 206.39 205.728 202.1 198.352 248.194 189.437 194.582 176.841 170.259 201.511 168.827
threshold=1.0000000180025095e-35 1.5000000000000002 11.500000000000002 38.125000000000007 1615.0000000000002 35.625000000000007 25780.000000000004 1.5000000000000002 47.500000000000007 355.00000000000006 65.875000000000014 285.00000000000006 285.00000000000006 295.00000000000006 39.500000000000007 2.5000000000000004 116.50000000000001 2011.5000000000002 10.500000000000002 255.00000000000003 1113.5000000000002 26740.000000000004 2008.5000000000002 2.5000000000000004 39.500000000000007 4000.0000000000005 47.500000000000007 628.50000000000011 1.5000000000000002 1108.5000000000002
decision_type=2 2 2 2 2 2 2 2 2 2 2 2 2 2 2 2 2 2 2 2 2 2 2 2 2 2 2 2 2 2
left_child=1 6 5 14 15 11 8 21 10 -9 12 -2 -1 -14 17 -5 29 -3 22 -16 -11 -7 -12 27 25 -15 -6 28 -24 -17
right_child=2 3 -4 4 26 7 -8 9 -10 20 18 -13 13 24 19 16 -18 -19 -20 -21 -22 -23 23 -25 -26 -27 -28 -29 -30 -31
leaf_value=-0.00090999511447328266 0.002128233598527686 -0.0019262756556949238 0.0033353729580627707 0.0017065842799964851 -0.00076145992931332077 0.0012684709937262615 -0.0051765357724949434 0.0040374086416495704 -5.4460813327699145e-05 0.0018534475433378845 -0.0015330541709325188 0.0005255635626269981 -0.0085858066107990915 -0.0030711194517126185 0.0064356320395512426 0.0014960548094583314 -0.0021274767775062474 -0.00015320353942281038 -0.0024472935657010343 -0.00036086084032430993 0.010566404213690584 -0.0017714576328414853 0.0028915706927908841 -0.00010536770838746816 -0.0013911914571990136 -0.0018149172279565598 0.0011093116365467732 -0.00057141601752833679 -0.0060457030184654648 -0.0058944659915986268
leaf_count=13996 12406 44491 16513 18278 67615 97747 3179 8002 13276 73348 42638 77621 860 33143 465 7180 4592 8500 13699 11420 272 2237 294 25432 17045 19636 5461 1797 1778 323
internal_value=0 -0.116653 0.143479 -0.061369 -0.0146612 0.131925 -0.166477 0.160322 -0.160396 0.209659 -0.172474 0.0746416 -0.214049 -0.238414 -0.135848 0.0996324 -0.00770246 -0.164187 -0.131364 -0.00949484 0.188564 0.120046 -0.109776 -0.0464342 -0.230775 -0.260376 -0.0621656 -0.282398 -0.477758 0.11779
internal_count=643244 355098 288146 168325 103449 271633 186773 181606 183594 81622 170318 90027 84680 70684 64876 30373 12095 52991 85638 11885 73620 99984 71939 29301 69824 52779 73076 3869 2072 7503
shrinkage=0.01


Tree=32
num_leaves=31
num_cat=0
split_feature=2 1 6 12 7 16 7 16 1 15 12 6 7 18 12 7 7 5 17 16 8 7 9 8 12 1 7 7 7 7
split_gain=10549.8 1296.82 958.636 576.494 658.904 470.277 390.902 336.758 326.883 320.632 299.912 305.891 288.086 285.306 370.445 345.199 274.002 247.629 361.975 230.868 205.41 201.661 194.405 243.255 190.373 172.656 169.187 234.255 232.453 220.329
threshold=1.0000000180025095e-35 1.0000000180025095e-35 1.5000000000000002 2009.5000000000002 1615.0000000000002 47.500000000000007 25780.000000000004 47.500000000000007 5.5000000000000009 29.500000000000004 2011.5000000000002 1.5000000000000002 355.00000000000006 65.875000000000014 2013.5000000000002 285.00000000000006 305.00000000000006 2.5000000000000004 150.50000000000003 47.500000000000007 10.500000000000002 305.00000000000006 2008.5000000000002 2.5000000000000004 2013.5000000000002 4.5000000000000009 205.00000000000003 395.00000000000006 845.00000000000011 1305.0000000000002
decision_type=2 2 2 2 2 2 2 2 2 2 2 2 2 2 2 2 2 2 2 2 2 2 2 2 2 2 2 2 2 2
left_child=2 -2 6 4 17 9 7 13 -6 10 11 -3 -13 14 15 -1 -17 26 -19 21 22 -5 -15 -24 -12 -8 -4 -28 -29 -30
right_child=1 5 3 19 8 -7 25 -9 -10 -11 24 12 -14 20 -16 16 -18 18 -20 -21 -22 -23 23 -25 -26 -27 27 28 29 -31
leaf_value=-0.00094145916088009219 0.0027427649155095835 0.00068919060640004791 0.00017550927405963132 0.0001294581294319685 -0.00052744948639618834 0.002722184353629723 -0.0035240854816444918 -5.3916199482562884e-05 -0.0074173658122016674 0.0026519168933248406 -0.00018342500468464845 0.0035385472111836625 0.0013787125379864425 -0.0015177236136331787 -0.00088276508665498005 -0.0094573270300166608 -0.0027386293466289363 0.0012959092503719194 -0.002868919043308485 0.00070117505662271656 -0.0024228206243172615 -0.0015809342121686004 -0.0027957387059674176 -0.0001043140338668517 0.0010827313205338856 -0.0085177825677932462 0.0050339273308802543 -0.00028346865347656961 0.0058661809564212021 0.0016713077405597285
leaf_count=12029 58984 81769 3594 7727 64724 16207 2160 13276 696 10583 36467 6889 59638 42638 18843 614 53194 7057 2963 5662 13699 63895 3869 25432 17609 1019 3066 3288 1872 3781
internal_value=0 0.142044 -0.115487 -0.0607554 -0.00683543 0.108009 -0.164812 -0.158792 -0.0600751 0.0955118 0.0866385 0.109885 0.160237 -0.170749 -0.211909 -0.247293 -0.28153 0.129105 0.00643338 -0.124273 -0.13005 -0.139641 -0.108679 -0.0459699 0.0228879 -0.512477 0.207893 0.264868 0.183074 0.306045
internal_count=643244 288146 355098 168325 91041 229162 186773 183594 65420 212955 202372 148296 66527 170318 84680 65837 53808 25621 10020 77284 85638 71622 71939 29301 54076 3179 15601 12007 8941 5653
shrinkage=0.01


Tree=33
num_leaves=31
num_cat=0
split_feature=2 6 14 12 7 12 6 7 7 16 18 12 7 7 11 5 17 12 5 7 8 9 8 7 7 7 7 7 7 8
split_gain=10339.8 939.559 611.576 565.022 645.792 442.329 412.905 402.641 383.123 330.057 279.629 363.073 338.33 268.55 268.301 242.702 354.771 241.123 213.826 205.138 201.322 190.536 238.414 174.415 172.388 165.82 229.593 227.827 215.944 200.656
threshold=1.0000000180025095e-35 1.5000000000000002 11.500000000000002 2009.5000000000002 1615.0000000000002 2011.5000000000002 1.5000000000000002 355.00000000000006 25780.000000000004 47.500000000000007 65.875000000000014 2013.5000000000002 285.00000000000006 305.00000000000006 11.500000000000002 2.5000000000000004 150.50000000000003 2013.5000000000002 3.5000000000000004 235.00000000000003 10.500000000000002 2008.5000000000002 2.5000000000000004 285.00000000000006 26740.000000000004 205.00000000000003 395.00000000000006 845.00000000000011 1305.0000000000002 11.500000000000002
decision_type=2 2 2 2 2 2 2 2 2 2 2 2 2 2 2 2 2 2 2 2 2 2 2 2 2 2 2 2 2 2
left_child=1 8 5 4 15 6 19 -8 9 10 11 12 -1 -14 18 25 -17 23 -5 -2 21 -12 -23 -7 -21 -3 -27 -28 29 -29
right_child=2 3 -4 14 -6 17 7 -9 -10 -11 20 -13 13 -15 -16 16 -18 -19 -20 24 -22 22 -24 -25 -26 26 27 28 -30 -31
leaf_value=-0.00093204456846822479 0.0023982480757476191 0.00017375414901020685 0.0032747561937277836 -0.0029107288483183657 -0.0005947434243244456 0.0015364882012981829 0.0040161683508614255 0.0018125856362861494 -0.0050735227002562458 -5.3377039040938682e-05 -0.0015025463816959999 -0.00087393743075790751 -0.0093627537141405415 -0.0027112430456187136 -0.000810582287968812 0.0012829501497438884 -0.0028402298457694077 0.001455569396689692 -0.00109422666776798 0.0010422861322696561 -0.0023985924287272483 -0.0027677812944142733 -0.00010327089476444851 -4.826293222171728e-05 -0.0017658001176143801 0.0049835880494139484 -0.00028063397432505713 0.0073248704706151274 0.001654594655851372 -0.0012566453294710362
leaf_count=12029 11350 3594 16513 13795 65420 8381 9249 80139 3179 13276 42638 18843 614 53194 51268 7057 2963 23513 12221 96236 13699 3869 25432 40528 2237 3066 3288 1541 3781 331
internal_value=0 -0.114332 0.140624 -0.0601478 -0.00676707 0.129265 0.153596 0.204059 -0.163164 -0.157204 -0.169042 -0.20979 -0.24482 -0.278714 -0.123031 0.127814 0.00636904 0.0623376 -0.205743 0.112522 -0.12875 -0.107592 -0.0455102 0.0223299 0.0978495 0.205815 0.262219 0.181243 0.302984 0.580752
internal_count=643244 355098 288146 168325 91041 271633 199211 89388 186773 183594 170318 84680 65837 53808 77284 25621 10020 72422 26016 109823 85638 71939 29301 48909 98473 15601 12007 8941 5653 1872
shrinkage=0.01


Tree=34
num_leaves=31
num_cat=0
split_feature=2 1 6 18 7 16 7 16 1 15 12 18 12 7 7 7 11 9 5 17 7 8 9 8 7 6 7 1 0 8
split_gain=10134.1 1271.04 920.861 553.93 528.712 452.431 375.499 323.488 318.759 314.275 290.948 274.064 355.848 331.597 263.206 241.206 226.187 219.39 217.884 294.013 201.376 197.316 186.744 233.67 182.408 176.131 255.893 169.22 166.871 197.501
threshold=1.0000000180025095e-35 1.0000000180025095e-35 1.5000000000000002 38.125000000000007 1615.0000000000002 47.500000000000007 25780.000000000004 47.500000000000007 5.5000000000000009 29.500000000000004 2009.5000000000002 65.875000000000014 2013.5000000000002 285.00000000000006 305.00000000000006 285.00000000000006 39.500000000000007 2011.5000000000002 2.5000000000000004 116.50000000000001 255.00000000000003 10.500000000000002 2008.5000000000002 2.5000000000000004 1855.0000000000002 1.5000000000000002 1615.0000000000002 4.5000000000000009 628.50000000000011 1.5000000000000002
decision_type=2 2 2 2 2 2 2 2 2 2 2 2 2 2 2 2 2 2 2 2 2 2 2 2 2 2 2 2 2 2
left_child=2 -2 6 16 18 9 7 11 24 10 25 12 13 -1 -15 -12 17 -4 -5 -20 -18 22 -13 28 -6 -3 -27 -8 29 -24
right_child=1 5 3 4 8 -7 27 -9 -10 -11 15 21 -14 14 -16 -17 20 -19 19 -21 -22 -23 23 -25 -26 26 -28 -29 -30 -31
leaf_value=-0.00092272411008594392 0.0027012925412985092 0.00082242025618143276 -0.0018807329170611815 0.0016567008354592351 -0.0037635839173946152 0.0026658579562524238 -0.0034381093940344188 -5.2843266147893582e-05 -0.0073372446118429805 0.0026125381111208206 0.0017411926804797009 -0.0014875209293297817 -0.00086519806650492501 -0.0092691263612299096 -0.0026841306179982284 0.00020693668657384531 0.0063776937156805515 -0.00012740360827895688 0.0011462578567741611 -0.0020664226438502865 -0.00033572773619735196 -0.0023746064862206263 0.0029182901951309366 -0.00010223817747852539 -0.00045919249256595778 0.0027422579989669731 0.0011716937391318813 -0.0083818694646790141 -0.00051006667038894541 -0.0059296107693382564
leaf_count=12029 58984 62806 44491 18278 1711 16207 2160 13276 696 10583 11837 42638 18843 614 53194 76280 465 8500 7503 4592 11420 13699 294 25432 70669 14410 37039 1019 1797 1778
internal_value=0 0.139218 -0.113188 -0.0595463 -0.0141174 0.105522 -0.161532 -0.155632 -0.060207 0.0932645 0.0844795 -0.167351 -0.207692 -0.242372 -0.275927 0.0413038 -0.131986 -0.159949 0.0967719 -0.00734717 -0.00730655 -0.127462 -0.106516 -0.0450551 -0.0537305 0.117778 0.161158 -0.502279 -0.27401 -0.467417
internal_count=643244 288146 355098 168325 103449 229162 186773 183594 73076 212955 202372 170318 84680 65837 53808 88117 64876 52991 30373 12095 11885 85638 71939 29301 72380 114255 51449 3179 3869 2072
shrinkage=0.01


Tree=35
num_leaves=31
num_cat=0
split_feature=2 1 6 12 7 16 7 15 16 7 12 7 7 0 18 12 16 5 1 7 7 5 9 7 12 9 7 12 14 7
split_gain=9917.23 1250.82 919.378 548.312 547.234 431.337 361.46 326.04 325.138 287.74 322.092 275.214 327.003 254.552 249.443 434.486 249.422 219.093 449.151 210.493 209.837 200.566 268.596 177.157 174.588 212.527 189.188 169.563 169.081 166.212
